0	0	0	0	0	0	0	0	0	0	0	0	0	0	0	0	0	0	0	0	0	0	0	0	0	0	0	0	0	0	0	0	0	4.22106e-06	0.000143796	0.000234835	0.000266211	0.000220674	0.000355478	8.07417e-05	2.69773e-05	0.000314156	0.00108102	0.00145457	-0.000159805	-4.65865e-05	9.14315e-05	4.97272e-05	8.37667e-05	0.000180999	5.12516e-05	1.75519e-05	0	0	0	0	0	0	0	-1.21028e-05	-4.16165e-06	-1.5529e-05	0.000382491	0.000658344	-0.0120608	-0.0266128	-0.00386851	0.00633883	0.0136814	-0.00517085	-0.00816959	-0.00423318	0.00787914	0.00225432	0.00426626	0.00438955	0.0057144	0.00428312	0.00162439	0.000254342	7.62914e-05	2.49234e-05	0	0	0	0	2.92503e-05	-5.64449e-06	5.84574e-05	0.000798598	0.000650364	-0.000539863	-0.0257138	-0.047737	-0.0455658	-0.039641	-0.0177402	-0.0123629	0.019822	0.0583191	0.0320675	0.0104031	0.0198888	0.0245816	0.0224759	0.00557837	-0.00144075	-0.00365233	-0.00120442	0.000175219	2.70944e-05	0	0	0	0.000103164	1.555e-05	0.00369738	0.0313824	0.0270192	0.00949925	0.00235271	-0.0318519	0.0132609	-0.00617854	-0.0187211	-0.033887	0.00196521	0.0350935	0.00299781	-0.00636795	0.0296694	0.00473751	0.00782163	-0.00590795	-0.018064	-0.0143976	-0.0134357	-0.00406034	7.53405e-05	3.07637e-06	0	0	2.88988e-05	-0.00274507	0.00146563	0.0310522	0.0176538	-0.00208958	0.0171073	-0.00268829	0.0153507	-0.00866081	-0.0679263	1.72131e-05	0.0130253	0.00261429	-0.0327932	-0.0223427	0.0226806	0.00407956	-0.016422	-0.0129345	-0.0153404	-0.0157991	-0.00595229	-0.00175243	0.000243137	2.68066e-05	0	0	-0.000192197	-0.00447925	-0.00562843	0.00194344	-0.013687	-0.0345599	-0.0241754	-0.0433143	0.0738808	0.0686147	-0.0343042	-0.0105015	-0.0247203	-0.0149316	-0.0510226	-0.0477752	-0.0171189	-0.0338547	-0.0358263	-0.0292591	-0.0221808	-0.0203094	-0.0136021	-0.00728956	0.00129497	0.00332368	0	-0.000101854	-0.000490089	-0.00522978	-0.0142046	-0.0213381	-0.0297279	-0.0318057	-0.0779004	-0.069019	0.0832391	0.0712762	0.0202852	-0.0287395	0.0271097	-0.01247	-0.0586619	-0.0465905	-0.0389881	-0.0465847	-0.0355542	-0.0415073	-0.0286147	-0.0300865	-0.0129541	-0.00206121	0.00597362	0.00280702	-4.07888e-05	4.87119e-05	-0.000603673	-0.0070135	-0.0154897	-0.0152774	-0.022111	-0.0305155	-0.10481	-0.110788	0.0496109	0.0867431	0.0172832	0.0180244	-0.00740066	-0.0544896	-0.0780934	-0.0718493	-0.0525143	-0.0383919	-0.0483612	-0.0544005	-0.0368256	-0.023626	-0.0044937	0.00253947	0.0030837	-0.000136584	-9.37184e-06	1.93934e-05	-0.0011297	-0.0085401	-0.0208338	-0.0322166	-0.0362617	-0.0388141	-0.0729233	-0.0894548	0.0420991	0.105074	0.0120675	0.0291306	-0.0753095	-0.084858	-0.108718	-0.0786047	-0.0269106	-0.0465823	-0.0641551	-0.0557284	-0.0347544	-0.0213092	-0.0127591	-0.00312615	-0.00324112	-0.000315107	-2.25701e-05	-5.02377e-05	-0.00114759	-0.00470876	-0.0258443	-0.0500723	-0.0624988	-0.0440136	-0.0289376	-0.00695867	0.0608524	0.0706072	0.0390666	0.062777	-0.0413883	-0.110686	-0.123355	-0.0579688	-0.0261399	-0.0410226	-0.0635582	-0.0453529	-0.0407922	-0.0339194	-0.0188383	-0.00277616	-0.00110849	-0.000394329	-1.58588e-05	-0.000214876	-0.00063883	-0.00403469	-0.0136991	-0.0327489	-0.050621	-0.0286533	-0.0142074	-0.0489849	0.000423843	0.0159153	0.0276701	-0.00667994	-0.0291547	-0.0733964	-0.121933	-0.0456841	-0.00833635	-0.0328089	-0.0356345	-0.0292139	-0.0310284	-0.02275	-0.0110548	-6.83539e-05	-0.00130413	-8.30176e-05	0	-4.6482e-05	-0.000283657	-0.00261703	-0.0100318	-0.0123136	-0.0168052	-0.0239468	-0.0112033	-0.0260542	-0.0356374	-0.0631646	-0.00502183	0.0131828	-0.0165951	-0.0195517	-0.0845365	-0.0549375	0.00542556	-0.0194798	-0.0218696	-0.0230663	-0.027521	-0.0156766	-0.00519374	0.00101235	-0.000115479	-3.7142e-05	0	1.75e-05	-0.000219986	-0.00135482	-0.00283337	-0.00931419	-0.00492294	0.000247132	-0.00727776	-0.0200473	-0.0508885	-0.064637	-0.0533572	-0.0159374	0.0211945	0.00463235	-0.0735943	-0.0393817	-0.0062143	0.000850853	-0.0189266	-0.031	-0.0298817	-0.0114766	0.00438168	0.000548882	0.00020058	9.97056e-05	0	-0.000287609	-0.000277374	0.000563486	-0.00126983	-0.0134721	-0.00310218	0.00393604	0.00352011	0.0114028	-0.0422718	-0.0547209	-0.0535531	-0.00755252	0.0650224	0.0293066	-0.0615074	-0.0044103	-0.0240016	-0.0298353	-0.0564595	-0.0581233	-0.0458054	-0.0193052	0.00770254	0.00160126	0.000997627	3.31972e-05	-4.27788e-07	-0.000596615	-0.000487902	0.00029418	-0.00392899	-0.00718582	-0.00300366	-0.00484194	0.0135567	0.0293763	-0.00950289	-0.0590259	-0.0738888	0.0222887	0.0664141	0.0594445	-0.0673738	-0.00353585	-0.0642328	-0.0771294	-0.0758397	-0.0568651	-0.0532466	-0.0269258	0.00182658	0.00167076	0.000739983	0.00022995	-2.44228e-06	-0.000316542	-0.0015847	-0.00164298	-0.00836021	-0.00199851	-0.00952128	-0.0191332	-0.00729023	0.00259244	-0.0506196	-0.088627	-0.12534	-0.0217369	0.10952	0.0524411	-0.0337211	-0.0149248	-0.0583858	-0.0702317	-0.0523625	-0.0229512	-0.0290415	-0.00939849	0.00864605	0.00697352	0.00215217	0.000322147	0	-9.56324e-05	-0.00182799	-0.00355793	-0.012671	-0.00942268	-0.0193112	-0.0376885	-0.0367446	-0.0369307	-0.0409997	-0.151955	-0.187532	-0.0564182	0.0932854	0.060955	-0.0203617	0.0135032	-0.0325005	-0.0641077	-0.0492757	-0.0177874	0.00421166	0.0177147	0.0251379	0.0158466	0.00333343	0.00199582	2.37186e-06	-4.17897e-07	-0.0013801	-0.00440356	-0.010915	-0.0133251	-0.0292318	-0.0517009	-0.0585806	-0.0228375	-0.0287355	-0.157146	-0.209946	-0.07803	0.0499701	0.0711043	-0.00976976	0.0100679	-0.0230176	-0.0257468	0.0181332	0.0358798	0.0477713	0.049221	0.0325941	0.0187766	0.00968133	0.00482616	0	-0.000113135	-0.00130581	-0.00419641	-0.0116654	-0.0228715	-0.0312841	-0.0495276	-0.0607095	-0.0127455	-0.0334862	-0.0919756	-0.169614	-0.0701924	0.0513467	0.0801807	0.0666293	0.0224172	0.0199423	0.026646	0.0873596	0.0734705	0.045813	0.0469302	0.0415567	0.0164396	0.00405168	8.61354e-05	0	-0.000259411	-0.00118013	-0.00248977	-0.00724985	-0.0213884	-0.0310075	-0.0424934	-0.0430363	-0.0149234	-0.0121726	-0.0411516	0.00400205	0.00969314	0.0770306	0.0539122	0.0645226	0.0339676	0.0362742	0.00917826	0.0388725	0.0458771	0.0233467	0.00623663	0.0329757	0.00934333	0.00121218	2.32903e-06	0	-1.56381e-05	-0.000154871	0.000435739	0.000408461	-0.00617136	-0.00953079	0.0361794	0.0479263	0.0215437	0.0400212	0.000331569	0.0104869	0.0187024	0.0836389	0.0696675	0.0296229	-0.0113534	0.00269963	-0.0205456	-0.0239219	-0.0137218	-0.0104015	-0.023681	0.00892533	0.00418448	0.000264188	0	0	-3.86081e-07	-0.000165423	0.000359634	0.0042625	0.00585891	0.00277763	0.0273285	0.0542418	0.0279186	-0.0105025	-0.0378297	-0.0633768	-0.104793	-0.0511046	0.0253359	-0.014682	0.0258562	0.0192287	0.0258954	0.0195301	0.0250225	-0.00517206	-0.0172968	0.00500016	0.000488401	0.000293439	0	0	0	-6.54394e-05	-1.30047e-05	-0.00218576	0.000712342	0.000302419	-0.0242535	-0.04458	-0.0499053	-0.0678745	-0.0516295	-0.0496899	-0.0921398	-0.0746318	1.28738e-05	0.0265988	0.00680424	-0.0386022	-0.0187851	0.0224363	-0.014083	-0.00581441	-0.00879807	0.00489562	0.00149044	0.000828526	0	0	0	-3.85729e-05	-0.000874783	-0.00336646	-0.00583524	-0.0166968	-0.0224898	-0.0133669	-0.000912307	-0.00440374	-0.0259092	-0.0366224	-0.0530897	-0.0794144	-0.0493213	-0.0320239	-0.0176107	-0.026651	-0.0562669	-0.0328435	-0.0247103	-0.00138217	0.00309825	0.00292832	0.000762541	6.31775e-05	0	0	0	7.85045e-06	-6.25642e-05	-0.00133761	-0.00509368	-0.0116052	-0.0123049	-0.00675633	-0.00610412	-0.00988682	-0.0088674	-0.0124123	-0.00990139	-0.0355938	-0.0508569	-0.0399952	-0.0295559	-0.0075169	0.00391412	0.00695391	0.00466645	0.00247429	0.0013369	0.000583335	5.88958e-05	5.22385e-05	0	0	0	0	-2.82348e-06	-4.86378e-06	0.000103783	-0.00200809	-0.00346196	-0.000898118	0.000318308	-0.000204064	-0.00229976	-0.00574824	-0.00308922	-0.0100007	-0.0103397	-0.0177349	-0.0128562	-0.000851427	0.00193678	0.0027904	0.00121918	0.000249589	4.43734e-05	5.69405e-06	0	0	0	0	0	0	0	3.45689e-06	1.38426e-05	2.92172e-05	-0.000343783	-0.000421693	-0.00066645	-0.000586971	-0.000409707	-0.00053713	-0.000634036	-0.00041021	-0.000708887	-0.000293152	-0.00034203	-0.000923097	-0.000178253	0.000274704	9.78447e-05	0.000148637	3.39536e-05	0	0	0	0	
0	0	0	0	0	0	0	0	0	0	0	0	0	0	0	0	0	0	0	0	0	0	0	0	0	0	0	0	0	0	0	0	0	-4.69044e-06	-0.000200657	-0.000356021	-2.34799e-06	0.000122135	-8.30505e-05	-0.000917272	-0.000411088	-0.000133878	-3.71802e-05	-0.000580679	-0.000917286	-0.000581068	-0.000211078	-0.000115677	-8.91653e-05	-0.00011267	-1.36794e-05	-1.41461e-05	0	0	0	0	0	0	0	-1.17851e-05	-4.05242e-06	-8.73178e-05	-2.5317e-05	-0.00206574	-0.00570557	-0.00232962	-0.00222424	-0.000706496	0.00745891	0.00407885	-0.00908053	-0.0101769	-0.00430699	-0.00033202	-0.00850782	-0.0159304	-0.00734168	-0.0045479	-0.000501383	1.87822e-05	-0.000134159	-9.18785e-05	0	0	0	0	-6.21997e-06	-1.76685e-05	-6.46613e-05	9.60722e-05	0.000690352	-0.00109131	-0.00074459	0.00653197	0.0152039	0.0216684	0.0269931	0.0245862	0.019789	0.00776095	0.00717284	0.00189619	-0.0087922	-0.00902757	-0.00239578	0.00206718	0.00133025	0.0006594	0.000692233	-3.47049e-05	3.44694e-05	0	0	0	-1.79379e-05	-1.42875e-05	5.32574e-05	0.00178784	0.00444574	0.00650478	0.00844585	0.0130285	0.0127062	0.0188625	0.0520164	0.0542553	0.0433694	0.0414681	0.0191882	-0.00616822	-0.00378623	0.00057733	0.00398682	0.00530222	0.0004296	0.00200949	0.00155916	-0.000174471	-0.000143431	7.57994e-05	0	0	1.70657e-06	-2.34012e-05	0.000948291	0.00111779	0.0057925	0.0131152	0.0165571	0.0101374	0.00955753	0.00604989	0.0115571	0.0268593	0.0545618	0.059073	0.0305073	0.00425305	-0.00500605	0.0140226	0.0160267	0.0036069	-0.00140847	0.00177669	0.000313324	-0.000302464	1.81665e-05	0.000114063	0	0	-0.000378331	-0.00060729	0.000202388	-0.00263779	0.00465825	0.00675094	0.0171401	0.0124966	-0.00903997	-0.0199642	-0.0183858	0.00546883	0.0244686	0.0446319	0.0300314	-0.0061533	-0.0303114	-0.0244794	-0.012689	-0.0145358	-0.0170746	-0.00585393	-0.00130739	0.000383261	0.000236821	0.000214782	0	1.48288e-05	-0.00123714	-0.00231377	0.00233073	0.000799068	-0.00321614	-0.0124825	-0.0189372	-0.0403343	-0.0494145	-0.0554418	-0.0613407	-0.0593827	-0.0405637	-0.0293145	-0.0348484	-0.0511414	-0.0691166	-0.0632251	-0.0462706	-0.0352252	-0.028813	-0.0190044	-0.00408351	0.00169497	0.00198247	1.65838e-05	-4.01382e-05	-0.000310842	-0.0021057	-0.00449477	0.00137146	-0.00917643	-0.0224384	-0.0392033	-0.0632569	-0.0855948	-0.0955897	-0.0928263	-0.0931491	-0.102911	-0.0878057	-0.0937166	-0.108391	-0.0916749	-0.1059	-0.0833227	-0.0685641	-0.0615852	-0.046578	-0.0382904	-0.024693	-0.00554564	0.0010427	-0.000218242	-2.03099e-05	-0.000476535	-0.00250078	-0.0037483	-0.00233195	-0.0146012	-0.0320356	-0.0560845	-0.0899018	-0.106533	-0.0868408	-0.0776927	-0.0766325	-0.0668666	-0.0905454	-0.0968628	-0.133171	-0.118088	-0.104021	-0.102371	-0.0905074	-0.0793953	-0.0585213	-0.0463495	-0.0344541	-0.0123878	-0.00100127	-0.000783972	-4.87506e-05	-0.000486464	-0.00280637	0.00651373	0.00213908	-0.00714884	-0.0185534	-0.0499443	-0.0932061	-0.0962538	-0.0779277	-0.0568209	-0.0534676	-0.0481401	-0.0709649	-0.0821467	-0.0946072	-0.0794659	-0.0873225	-0.100103	-0.0898348	-0.0723599	-0.0520925	-0.0348087	-0.0206023	-0.00777352	-0.00155381	-0.000514729	-1.3666e-05	-0.000453861	-0.00289491	0.00158596	-0.00747606	-0.0178383	-0.0397024	-0.0652033	-0.0879726	-0.0921422	-0.0752176	-0.0667152	-0.0450656	-0.0302995	-0.0557338	-0.0493756	-0.0484307	-0.0515985	-0.0808741	-0.0896794	-0.0929764	-0.0732526	-0.0470487	-0.0294746	-0.00851414	-0.000171535	-0.00194241	-0.000138168	0	-0.000220837	-0.00183925	-0.00358733	-0.00476433	-0.0187099	-0.0479465	-0.0690601	-0.0616798	-0.0660103	-0.0588767	-0.0415322	-0.0121575	0.0102092	0.00303649	-0.0387496	-0.0459351	-0.038676	-0.0484602	-0.0732568	-0.0812877	-0.0522729	-0.0390851	-0.0246688	-0.00269831	0.00500799	0.00045192	-0.000270273	0	-2.58918e-05	-0.00108743	-0.00235705	-0.00345924	-0.0164113	-0.0367637	-0.0597108	-0.040008	-0.0275134	-0.0264629	-0.00472723	0.00418345	0.027391	0.00207564	-0.0269316	-0.028889	-0.00836263	-0.0149684	-0.0608113	-0.0532618	-0.0425912	-0.0375784	-0.016371	0.00277818	0.005627	0.00129442	-0.000133037	0	8.83281e-05	-0.000446048	-0.000467667	0.00572355	-0.0065302	-0.0399262	-0.0346592	-0.00494904	0.00977446	0.00922361	0.0206758	0.0156521	0.0247976	0.0177089	-0.000312309	0.00524601	0.0026975	-0.0196461	-0.0391702	-0.0383905	-0.0359808	-0.038088	-0.0233226	-0.0025856	0.00358497	0.000814776	-5.48627e-06	-3.58046e-07	0.000134198	0.000148402	0.00155854	0.0100373	0.00721223	-0.0165414	-0.00689899	0.0177785	0.040137	0.0358701	0.0426586	0.0355593	0.0462262	0.0363268	0.0283774	0.0102705	-0.0155652	-0.00545058	-0.00232416	-0.00626373	-0.0193854	-0.0231111	-0.0165517	-0.00706015	0.0040875	0.00220318	0.00033339	-2.04411e-06	6.81147e-05	0.000560056	0.00440252	0.00557555	0.023677	0.0209461	0.0266207	0.0332286	0.047251	0.0472434	0.0473262	0.0440848	0.0370397	0.028283	0.00417727	-0.0251592	-0.0470856	-0.0018853	0.026527	0.0328559	0.0143374	0.000793923	-0.00493572	-0.000817342	0.00511733	0.00212275	0.000494016	0	2.50726e-05	0.0010292	0.00671741	0.0148257	0.0203988	0.0268572	0.0450847	0.0205398	-0.003503	-0.00514947	0.0160733	0.01209	0.00308415	-0.00757435	-0.0400222	-0.0676046	-0.0527063	0.0210532	0.0433071	0.043937	0.0448948	0.0212193	0.0104905	0.00136822	0.00767758	0.00380334	3.10141e-05	-5.2056e-05	1.05752e-06	0.000598849	0.0083558	0.0202291	0.0244719	0.0327757	0.0309988	0.00682922	-0.0205416	-0.0426181	-0.0385135	-0.0265988	-0.0193743	-0.0293249	-0.0587908	-0.0556926	-0.010374	0.0396866	0.0494489	0.0379178	0.0342911	0.028707	0.0107928	0.0112323	0.00938513	0.000727158	0.000235036	0	-0.000142641	0.000957664	0.0107882	0.0156841	0.0244402	0.03127	0.0344609	0.0120411	-0.0226696	-0.0352502	-0.030997	-0.0494626	-0.0528125	-0.0470508	-0.0519781	-0.0293599	0.0180998	0.0535555	0.0410482	0.0231666	0.0204441	0.0148212	-0.00140454	0.00782886	0.00617796	0.00078105	3.80324e-05	0	-0.000266668	0.00602594	0.0131586	0.01615	0.0272209	0.0202052	0.0247408	0.00582509	-0.00770806	-0.0198582	-0.0338829	-0.0524102	-0.0650003	-0.0563021	-0.0500438	-0.0420777	0.0122157	0.036107	0.0218721	0.0270951	0.0305346	0.0236213	0.00765419	0.00438181	0.00358045	0.000560161	-3.50144e-06	0	2.35021e-06	0.00427117	0.0083749	0.0092197	0.0192427	0.0182697	0.0142696	-0.00139734	-0.0165188	-0.0327001	-0.0383832	-0.0431173	-0.047518	-0.0519948	-0.0442681	-0.0333313	-0.00248132	0.0258338	0.0375546	0.0297365	0.0340401	0.0158228	0.00160229	0.00075023	0.00272968	0.000231049	0	0	4.41519e-08	0.000820835	0.00284931	0.00384424	0.00677179	0.00463388	0.013947	0.00220659	-0.0264122	-0.0438263	-0.0665164	-0.0723654	-0.061497	-0.0553711	-0.0407168	-0.0315215	-0.00593932	0.0162338	0.0319965	0.0258009	0.0237142	0.003243	-0.00911643	-0.00224076	0.000904336	-0.000129877	0	0	0	0.000216642	0.0020886	0.000246119	0.000237898	0.00201263	0.00117342	-0.00917797	-0.029101	-0.0573812	-0.0809787	-0.094517	-0.0985323	-0.0845812	-0.0691309	-0.0552555	-0.030689	-0.00597818	0.007944	0.00990661	0.0137884	0.0020857	0.000593234	0.000331181	0.000286228	-2.06951e-05	0	0	0	-6.94511e-05	0.000304158	-0.00121352	-0.00662444	-0.00945918	-0.015984	-0.0234123	-0.0350969	-0.056367	-0.0645534	-0.0817732	-0.084574	-0.0726433	-0.0660645	-0.0555449	-0.0344149	-0.0102001	0.000875984	0.010745	0.0151832	0.00629876	0.00221375	0.00122901	0.00114042	9.93424e-05	0	0	0	2.88236e-06	-0.000147466	-0.000582152	-0.00288447	-0.00769638	-0.0154323	-0.0277082	-0.0395253	-0.0501631	-0.0565434	-0.0583704	-0.0557471	-0.0525106	-0.0420497	-0.0370955	-0.0293822	-0.00847022	-0.00610157	-0.00505026	-0.00428184	7.45418e-05	0.000393577	-0.000213509	9.32239e-05	0.000102702	0	0	0	0	-5.13616e-07	0.000381634	0.000522448	-0.00179536	-0.00683121	-0.0136546	-0.0203467	-0.0238043	-0.028506	-0.0317579	-0.0337876	-0.0321138	-0.0266836	-0.0238768	-0.0167472	-0.0099072	-0.00680227	-0.00368192	-0.00146351	-0.0007897	-0.000114946	-2.18996e-05	0	0	0	0	0	0	0	-2.50065e-06	-2.80462e-05	-0.000153754	-0.000761211	-0.00110776	-0.00122273	-0.00157302	-0.00136801	-0.00195495	-0.00231544	-0.00272236	-0.00222186	-0.00212913	-0.0016757	-0.00145353	-0.000670698	-0.000125217	-0.000208118	-0.000123393	4.44938e-07	0	0	0	0	
0	0	0	0	0	0	0	0	0	0	0	0	0	0	0	0	0	0	0	0	0	0	0	0	0	0	0	0	0	0	0	0	0	-1.07193e-05	-0.000378762	-0.000635314	1.73023e-05	0.00024884	-8.20928e-06	-0.00085612	-0.000731771	-0.000227248	0.000186616	-0.000720935	-0.00116021	-0.000947967	-0.00191313	-0.00324863	-0.00132671	-0.00286766	-0.0018973	-4.87344e-05	0	0	0	0	0	0	0	-2.103e-05	-7.23138e-06	-0.000147064	-0.000104372	-0.000608887	-0.00257807	-0.00351884	-0.00393033	-0.00186345	-0.000660767	-0.00225949	0.000449761	0.000215184	0.00617414	0.00927531	0.00572051	0.00623283	0.00320871	0.00304266	0.00073922	0.000452559	-6.4428e-05	-0.000137249	0	0	0	0	-1.76655e-05	-4.28736e-05	-2.1363e-05	-9.64186e-05	0.000629305	0.00168265	-0.00118694	-0.000849193	-0.00526419	-0.0248731	-0.0242078	-0.0213405	-0.0141493	-0.00638862	0.004016	0.00460379	0.0012744	0.00916018	0.00908049	0.00871533	0.00210121	0.00415329	0.00268444	9.05163e-05	0.000140813	0	0	0	-5.63483e-05	-6.98825e-05	-0.000162986	-0.000403521	0.00277334	0.00434376	-0.00644505	-0.019451	-0.031014	-0.0332153	-0.0216598	-0.0200746	-0.0244626	-0.0193963	0.000266096	0.00784156	0.0106704	0.0111682	0.0178407	0.0154527	0.00503435	0.00732967	0.00300262	-0.000850545	-0.000132218	0.000128913	0	0	-3.75601e-06	-0.0002936	-0.000719785	-0.000805521	0.00515808	0.00759592	0.00216885	0.0011536	0.0178479	0.0160383	0.02017	0.00825085	0.00426698	0.00734432	0.013462	0.0277807	0.0536512	0.0325254	0.0291457	0.0442296	0.0501927	0.0287152	0.00524449	-0.000742268	0.00030037	0.000199664	0	0	-0.000314732	-0.00242185	-0.00625071	-0.00840706	0.00154907	0.0101433	0.00269717	0.00062283	-0.0220621	-0.000181847	0.00341935	-0.00859058	0.00659118	0.0116634	0.000974065	-0.00505443	0.00822649	-0.00355045	0.00578596	0.0225707	0.0377046	0.0302825	0.0158867	0.003391	0.00194714	0.0004896	0	-0.000142312	-0.000757842	-0.00982963	-0.0116672	-0.0107095	-0.010959	-0.00393116	-0.0306282	-0.0587019	-0.0750548	-0.0482483	-0.0447909	-0.0405882	-0.0336705	-0.0584591	-0.0629834	-0.0545055	-0.0712003	-0.0725037	-0.0437279	-0.0124708	-0.000336487	0.00813234	0.00664889	0.00513912	0.00535218	0.000187712	-5.13413e-05	-0.000358901	-0.00157527	-0.00808394	-0.0124264	-0.0125142	-0.0243578	-0.0222688	-0.0583481	-0.103249	-0.109645	-0.0621282	-0.0542849	-0.0787195	-0.112392	-0.15582	-0.146383	-0.113152	-0.111743	-0.106817	-0.0655823	-0.0426528	-0.0328931	-0.0176483	-0.00199625	0.000601567	0.000136814	-0.000327153	-1.02449e-05	-0.000542844	-0.00341426	-0.00929256	-0.0171327	-0.0186112	-0.0447936	-0.0431374	-0.0674086	-0.0951771	-0.0824163	-0.0405355	-0.0445123	-0.0916283	-0.1505	-0.16599	-0.156038	-0.128852	-0.101606	-0.11368	-0.0803083	-0.0689325	-0.0596786	-0.037609	-0.012648	-0.00651463	-0.00381496	-0.000728303	-2.46267e-05	-0.000613398	-0.00722614	-0.0137815	-0.0178509	-0.0269342	-0.0591041	-0.0493982	-0.0508197	-0.0376254	-0.0158936	0.00292858	-0.0375582	-0.105777	-0.134025	-0.121794	-0.115889	-0.0870757	-0.0884168	-0.0971771	-0.0886431	-0.0816667	-0.0625746	-0.0393716	-0.00828555	-0.00327788	-0.00182861	-0.000605761	-1.1444e-05	-0.000600496	-0.00616507	-0.0131716	-0.0190691	-0.0305531	-0.0327854	-0.0383785	-0.01747	0.00291652	0.0172397	0.00649643	-0.0467174	-0.106884	-0.0990164	-0.0887608	-0.059712	-0.0498697	-0.0569801	-0.0642294	-0.080457	-0.0598123	-0.0546607	-0.0284886	-0.00641474	-0.00557801	-0.0018814	-0.000186869	0	-0.00028542	-0.00261041	-0.00805007	-0.0134471	-0.0252614	-0.0264057	-0.0268575	0.0147592	0.0468323	0.0493058	0.00869655	-0.0358064	-0.0499705	-0.0673409	-0.0586359	-0.0616242	-0.0303042	-0.0553012	-0.07544	-0.0643132	-0.0433041	-0.044994	-0.0191406	0.000686053	-0.00575218	-0.00381207	-0.000372133	0	4.67773e-05	-0.00134515	-0.00314121	-0.0192231	-0.0163211	0.000785248	0.00958799	0.0509353	0.0872063	0.0735846	0.0334486	0.00119404	-0.0208496	-0.0496993	-0.0511509	-0.0315066	-0.0349492	-0.066635	-0.0825182	-0.0556639	-0.0434809	-0.0297096	-0.00165672	6.36513e-05	-0.0032427	-0.00122575	-0.000324985	0	-0.000269431	-0.0008433	-9.33232e-05	-0.0145036	0.00223319	0.0268665	0.047522	0.0831247	0.117033	0.0839759	0.0644844	0.0552742	0.0387382	0.031452	0.03395	0.0223808	-0.0308235	-0.0615616	-0.0577302	-0.0502436	-0.0479694	-0.0363472	-0.0160678	-0.0150613	0.000824542	0.000200515	-7.75451e-06	-1.05484e-06	-0.000632919	-0.00074619	0.00152432	-0.00120871	0.00479229	0.0223488	0.0763531	0.0891552	0.0835551	0.0656897	0.0855884	0.0870804	0.0585837	0.0614731	0.0703042	0.0435897	-0.0224504	-0.0331628	-0.0123188	-0.03427	-0.0473348	-0.0490937	-0.0393698	-0.039943	-0.0152886	0.00230874	0.000129723	-6.0222e-06	-0.000371157	-0.00224648	-0.00334626	-0.0228456	-0.00799742	0.0326862	0.0535985	0.0542245	0.0334414	0.0416617	0.0473078	0.0457345	0.0253998	0.0236055	0.0169321	0.00600354	-0.028521	-0.0241732	-0.0112763	-0.00581096	-0.0101475	-0.0278768	-0.0435476	-0.0148779	0.0043595	0.00163298	0.000212857	0	-0.000122618	-0.00170887	-0.0110788	-0.0310982	-0.00553746	0.0229658	0.0323036	0.0121975	-0.018555	-0.0277835	-0.01667	0.00924691	0.00314853	0.0124642	0.0112361	-0.0176448	-0.0262126	-0.0108699	0.0029149	0.0153889	0.00637193	-0.0169832	-0.0262822	-0.000340383	0.00902454	0.00222034	-0.00018277	-6.87394e-05	-2.49824e-06	-0.00226479	-0.0127605	-0.033379	-0.0152811	0.00810364	-0.000515714	-0.0240878	-0.0302	-0.0398971	-0.0155019	0.000313707	-0.00221097	-0.00321111	-0.0241385	-0.0469006	-0.0261781	0.0115577	0.0288031	0.0174434	-0.00906846	-0.00230135	-0.00259963	0.000705894	-0.000716209	0.000678716	-4.77717e-06	0	-0.00019842	-0.00208572	-0.00704947	-0.0212965	-0.0216941	-0.00971573	-0.0161867	-0.0332365	-0.0385726	-0.0302018	-0.00343006	-0.032842	-0.0444694	-0.0421312	-0.0462641	-0.0623416	-0.0276726	0.0197918	0.007724	0.0108302	-0.0108525	0.0117415	0.0113946	0.00167688	0.00188341	0.000648097	2.65704e-05	0	-0.000367749	-0.000321903	-0.004907	-0.0117747	-0.0138492	-0.0146997	-0.0171634	-0.0218803	-0.022173	-0.0153267	-0.0202423	-0.0504205	-0.0553367	-0.068753	-0.0805567	-0.079068	-0.0303568	0.0269372	0.0324514	0.0144054	0.00487282	0.0311779	0.0223372	0.00682013	0.00325501	0.00071628	2.95455e-06	0	-3.96709e-05	-6.96872e-06	-0.00233735	-0.0059098	-0.00591991	-0.0153919	-0.0164149	0.00574562	0.00642074	-0.00908354	-0.0351441	-0.0262472	-0.0318762	-0.0645385	-0.0784642	-0.0670397	-0.0105931	0.0439857	0.0491167	0.0354468	0.0220386	0.0362473	0.0201462	0.00459576	0.000999518	0.000181424	0	0	-1.13618e-06	-0.000188881	-0.00056748	-0.00176231	-0.00668002	-0.013568	-0.00590662	0.00312949	-0.0174331	-0.0412119	-0.0638412	-0.0657996	-0.0711347	-0.0794752	-0.0615247	-0.0304325	0.0146776	0.048109	0.0610818	0.0445924	0.0352026	0.0275101	0.00619938	0.000824206	-0.00155456	-0.000854252	0	0	0	-0.000184788	-0.000844662	-0.00371368	-0.0086751	-0.00894849	-0.0112776	-0.00632452	-0.0249907	-0.0463993	-0.0624962	-0.0775647	-0.0894204	-0.075835	-0.0380648	-0.00225022	0.0296408	0.0440449	0.0591247	0.0458512	0.0322724	0.0111832	0.00271424	-0.00170765	-0.0022973	-0.000575718	0	0	0	-0.000121265	-0.00123694	-0.00427943	-0.00839066	-0.00889895	-0.0143436	-0.0237121	-0.0360427	-0.0531489	-0.0557066	-0.0559902	-0.0660135	-0.0511263	-0.032521	-0.0101685	0.00232778	0.00732129	0.0115997	0.0232127	0.00799602	0.00457974	0.00138512	0.00158066	0.000803706	5.27314e-05	0	0	0	2.27019e-06	-0.000102293	-0.000305084	-0.00224847	-0.0114872	-0.0219658	-0.0326755	-0.0444207	-0.0521619	-0.0559439	-0.0658688	-0.0597394	-0.0484485	-0.0351982	-0.0297449	-0.0187692	-0.0113587	-0.0157735	-0.00508814	-0.0093409	0.00345927	0.00305405	0.000418308	6.33419e-05	5.67124e-05	0	0	0	0	-1.18638e-06	0.000818152	0.00171822	-0.00344974	-0.0102941	-0.0171578	-0.0238915	-0.0264295	-0.0300214	-0.0322617	-0.0365205	-0.0336165	-0.0287927	-0.0249176	-0.0217556	-0.0177982	-0.00804362	-0.0042671	-0.012356	-0.00429878	-0.000147971	-2.86629e-05	0	0	0	0	0	0	0	-8.9822e-06	-7.62564e-05	-0.000220586	-0.00111918	-0.00173405	-0.00189336	-0.00227844	-0.00223156	-0.00312356	-0.00322928	-0.00381701	-0.00319821	-0.00298782	-0.00229429	-0.00237372	-0.00115126	-0.000413183	-0.00892599	-0.00557604	6.58859e-06	0	0	0	0	
0	0	0	0	0	0	0	0	0	0	0	0	0	0	0	0	0	0	0	0	0	0	0	0	0	0	0	0	0	0	0	0	0	0	0	0	0	0	0	0	0	0	0	0	0	0	0	0	0	0	0	0	0	0	0	0	0	0	0	0	0	0	0	0	0	0	0	0	0	0	0	0	0	0	0	0	0	0	0	0	0	0	0	0	0	0	0	0	0	0	0	0	0	0	0	0	0	0	0	0	0	0	0	0	0	0	0	0	0	0	0	0	0	0	0	0	0	0	0	0	0	0	0	0	0	0	0	0	0	0	0	0	0	0	0	0	0	0	0	0	0	0	0	0	0	0	0	0	0	0	0	0	0	0	0	0	0	0	0	0	0	0	0	0	0	0	0	0	0	0	0	0	0	0	0	0	0	0	0	0	0	0	0	0	0	0	0	0	0	0	0	0	0	0	0	0	0	0	0	0	0	0	0	0	0	0	0	0	0	0	0	0	0	0	0	0	0	0	0	0	0	0	0	0	0	0	0	0	0	0	0	0	0	0	0	0	0	0	0	0	0	0	0	0	0	0	0	0	0	0	0	0	0	0	0	0	0	0	0	0	0	0	0	0	0	0	0	0	0	0	0	0	0	0	0	0	0	0	0	0	0	0	0	0	0	0	0	0	0	0	0	0	0	0	0	0	0	0	0	0	0	0	0	0	0	0	0	0	0	0	0	0	0	0	0	0	0	0	0	0	0	0	0	0	0	0	0	0	0	0	0	0	0	0	0	0	0	0	0	0	0	0	0	0	0	0	0	0	0	0	0	0	0	0	0	0	0	0	0	0	0	0	0	0	0	0	0	0	0	0	0	0	0	0	0	0	0	0	0	0	0	0	0	0	0	0	0	0	0	0	0	0	0	0	0	0	0	0	0	0	0	0	0	0	0	0	0	0	0	0	0	0	0	0	0	0	0	0	0	0	0	0	0	0	0	0	0	0	0	0	0	0	0	0	0	0	0	0	0	0	0	0	0	0	0	0	0	0	0	0	0	0	0	0	0	0	0	0	0	0	0	0	0	0	0	0	0	0	0	0	0	0	0	0	0	0	0	0	0	0	0	0	0	0	0	0	0	0	0	0	0	0	0	0	0	0	0	0	0	0	0	0	0	0	0	0	0	0	0	0	0	0	0	0	0	0	0	0	0	0	0	0	0	0	0	0	0	0	0	0	0	0	0	0	0	0	0	0	0	0	0	0	0	0	0	0	0	0	0	0	0	0	0	0	0	0	0	0	0	0	0	0	0	0	0	0	0	0	0	0	0	0	0	0	0	0	0	0	0	0	0	0	0	0	0	0	0	0	0	0	0	0	0	0	0	0	0	0	0	0	0	0	0	0	0	0	0	0	0	0	0	0	0	0	0	0	0	0	0	0	0	0	0	0	0	0	0	0	0	0	0	0	0	0	0	0	0	0	0	0	0	0	0	0	0	0	0	0	0	0	0	0	0	0	0	0	0	0	0	0	0	0	0	0	0	0	0	0	0	0	0	0	0	0	0	0	0	0	0	0	0	0	0	0	0	0	0	0	0	0	0	0	0	0	0	0	0	0	0	0	0	0	0	0	0	0	0	0	0	0	0	0	0	0	0	0	0	0	0	0	0	0	0	0	0	0	0	0	0	0	0	0	0	0	0	0	0	0	0	0	0	0	0	0	0	0	0	0	0	0	0	0	0	0	0	0	0	0	0	0	0	0	0	0	0	0	0	0	0	0	0	0	0	0	0	0	0	0	0	0	0	0	0	0	
0	0	0	0	0	0	0	0	0	0	0	0	0	0	0	0	0	0	0	0	0	0	0	0	0	0	0	0	0	0	0	0	0	8.96334e-06	0.000288464	0.000488288	0.000188106	3.2007e-05	2.92607e-05	-0.000633752	0.000131343	-0.0103492	-0.0108244	-0.0110234	-0.000350201	0.000226415	3.80543e-05	-8.81883e-05	8.08671e-05	0.00017149	8.94005e-06	2.78699e-05	0	0	0	0	0	0	0	-9.42161e-06	-3.23971e-06	0.00392969	0.00417076	0.0044658	0.0112215	0.0279861	0.0212479	0.0201941	0.0306671	0.0403813	0.028459	-0.0405784	-0.0483197	-0.0313726	-0.0375923	-0.0546065	-0.0169567	-0.00131853	-0.00687615	-0.00252965	-4.05336e-06	0.000145034	0	0	0	0	1.04953e-05	7.64202e-06	0.00381022	0.00436399	0.00593471	0.0129795	0.0337	0.127412	0.108281	0.0986878	0.0951252	0.0587108	0.109253	0.0503131	0.00618753	-0.0051142	-0.0575454	-0.0511878	-0.0622765	-0.0545854	-0.0157391	-0.0195129	-0.0114686	-0.00131684	-0.00141471	0	0	0	3.8536e-05	5.14415e-05	0.00400479	0.00977268	0.061832	0.106237	0.112542	0.178789	0.185494	0.156944	0.0774751	0.0189097	-0.04786	-0.0384061	0.0420939	0.108571	0.127631	0.028181	-0.060098	-0.0882297	-0.0567765	-0.0651281	-0.0689888	-0.0248746	-0.00460897	-0.00454256	0	0	2.61864e-05	8.17055e-05	0.0044551	-0.0332445	-0.0402303	0.0460693	0.0055379	0.0555243	0.105357	0.0957902	0.00357322	0.0488381	-0.0284704	-0.0596883	-0.0937233	-0.0955706	0.0318491	0.070343	0.0192986	-0.0511819	-0.0680843	-0.0866694	-0.0621443	-0.0374099	-0.0156618	-0.00668983	0	0	-0.000102086	0.00194113	0.00832809	-0.0730945	-0.0308801	0.110476	0.0693109	0.1411	0.1633	0.0952842	0.0209099	-0.00248761	0.0703905	0.0292948	-0.0229909	-0.140295	-0.0144293	-0.023166	-0.0421005	-0.0422233	-0.057835	-0.0818059	-0.0363796	-0.00223955	-0.00272801	-0.00204527	0	0.000197538	-0.000771077	-0.00242477	-0.00224433	-0.0104354	0.046242	0.105955	0.0887069	0.0817193	0.032524	0.192276	0.120542	0.114711	0.105408	-0.0688071	-0.0701247	-0.024983	-0.0251968	0.0360418	-0.0157684	0.0138364	-0.0261837	-0.0517942	-0.0400117	-0.00540694	-0.00374194	-0.00143569	-7.38142e-05	0.000230937	-0.00360205	-0.022826	-0.0138228	0.0178605	0.00788197	-0.0113754	-0.0512902	0.0404616	0.0622659	0.136287	0.0846399	-0.0510151	0.112368	0.0204144	0.0202075	0.00744927	-0.00112551	0.00340837	0.0151563	-0.0550598	-0.008007	-0.0387145	-0.0571258	-0.0264016	-0.00225095	0.000170829	-3.30103e-05	0.000147477	-0.0123868	-0.0346533	-0.0399079	-0.00407163	-0.0306142	-0.0302454	-0.0797519	-0.055548	-0.158275	-0.289287	-0.281203	-0.295637	-0.0505847	-0.0418013	0.09801	0.0291426	0.108171	0.0164063	-0.0263707	-0.0765023	-0.0121581	-0.0269626	-0.0174387	-0.000500039	-0.000568893	-0.000501099	-7.94249e-05	-1.9649e-05	0.000153744	-0.0150523	-0.0455731	-0.0721511	-0.0527993	-0.0836685	-0.194099	-0.259579	-0.334512	-0.41649	-0.35601	-0.197445	-0.0976561	-0.0631129	-0.00901006	-0.0690773	0.117085	0.0565214	-0.116816	-0.128148	-0.0698192	-0.0424485	-0.00241963	0.00522797	0.00181741	-0.000268851	-4.64529e-05	-0.000278769	-0.000311796	-0.0210699	-0.0504184	-0.0914876	-0.0991341	-0.137981	-0.299725	-0.381874	-0.389687	-0.280562	-0.180118	-0.03988	0.104002	-0.0819207	-0.157637	-0.123829	0.0739453	0.0603261	-0.0795586	-0.170611	-0.148948	-0.0709858	-0.0198863	0.00727087	-9.81665e-05	7.91161e-06	0	-1.95007e-05	0.000566476	-0.020899	-0.0706719	-0.0950048	-0.144511	-0.217836	-0.29907	-0.309398	-0.206016	-0.0233448	-0.00934327	0.0824009	0.0950444	0.0466325	0.00762367	-0.0697674	0.0460876	0.0596715	-0.0114279	-0.155476	-0.183501	-0.103828	-0.010946	0.0138016	0.000308424	0.000142548	0	-0.000130972	-0.00511071	-0.00978463	-0.0729742	-0.118369	-0.147128	-0.235234	-0.256853	-0.16982	-0.0522376	-0.00515191	0.0445901	-0.00572857	0.0687196	-0.00560632	-0.04256	-0.0868294	0.0262796	0.00435714	-0.0208465	-0.142285	-0.183861	-0.107601	-0.00141466	0.0192192	0.00425807	0.00199248	0	0.000108832	-0.00512352	-0.00706728	-0.0613995	-0.150747	-0.148371	-0.172968	-0.118116	-0.0484006	0.055925	0.00857738	-0.113	-0.0269623	-0.0441451	-0.0918076	-0.0458415	-0.117569	-0.147749	-0.0771648	-0.0433428	-0.111817	-0.155633	-0.147442	-0.0409221	0.00954661	0.017904	0.00121775	-1.40495e-06	0.000303267	-0.00441573	-0.00416621	-0.0612116	-0.13164	-0.0954168	-0.062378	-0.0170274	0.10981	0.0150076	0.00515774	-0.0420131	0.0389604	-0.0752158	-0.0994324	-0.0874206	-0.239498	-0.132478	-0.117064	-0.0691466	-0.0559891	-0.120554	-0.149535	-0.0453688	0.0188199	0.0156705	0.000678821	-8.02096e-06	0.000254599	-0.00237786	-0.0101536	-0.0478261	-0.0799598	-0.0736131	-0.0518186	0.0213772	0.121499	0.0749816	-0.021123	0.0415827	0.0297857	-0.0524078	-0.148164	-0.252987	-0.241508	-0.148217	-0.098719	-0.129441	0.0609458	-0.00100865	-0.145567	-0.0179559	0.0769262	0.0414508	0.00106028	0	8.25649e-05	-0.00197455	0.00493697	-0.0343984	-0.0565672	-0.0573834	-0.0336624	0.0916436	0.0413641	-0.0100604	0.102786	0.108734	0.043116	-0.0452553	-0.249797	-0.311925	-0.261785	-0.10467	-0.0828032	-0.0647759	0.045405	0.146538	-0.0111117	-0.016478	0.079512	0.0263222	0.000919464	1.76047e-05	5.88297e-06	-0.00372029	0.0178791	-0.0118985	-0.0326085	0.00225439	0.055494	0.0878338	0.0746339	0.0572952	0.00906995	0.193918	0.111625	-0.060965	-0.246993	-0.120519	0.0962081	0.10816	0.0377487	0.040033	0.0427746	0.123812	0.0557503	0.0124225	0.0487011	0.00938384	0.000655803	0	-1.23968e-05	-0.00694484	0.00810366	0.0239689	0.0813764	0.0140809	0.00477991	0.00738989	0.0155511	0.0205336	0.0815187	0.101599	0.132403	-0.00953204	-0.0121937	0.0235107	0.0622971	0.0382642	-0.0429935	-0.0897267	-0.0989611	0.00271843	0.0727807	0.00732158	0.0438921	0.010805	9.08375e-05	0	-0.000206307	-0.0119902	0.00524762	0.0266035	0.0974958	0.00285388	0.03975	0.0251471	-0.111092	-0.0900353	0.017149	0.0320131	-0.0103918	-0.00836065	0.151625	0.140581	0.0874252	0.0384905	0.0161905	0.000431607	-0.0389007	-0.0230529	-0.00243694	-0.0169488	0.0210256	0.0212204	3.57064e-06	0	9.41069e-05	-0.00987892	0.00498126	-0.0162622	-0.0178624	-0.0619817	0.0198591	0.0640423	-0.0431523	-0.0772811	-0.0550863	-0.0487916	-0.111991	0.0531197	0.143638	0.0993065	0.0840485	0.121862	0.159019	0.0608815	-0.0446701	0.0575593	0.0815101	0.0231306	0.0407601	0.0177842	0	0	3.16438e-06	0.00133276	-0.00179428	-0.0310469	-0.055728	-0.0597925	0.011492	0.0694561	0.0130354	0.0268685	0.0506208	-0.0449033	0.0167082	0.0806337	0.0237159	0.0254221	0.0414469	0.127305	0.15198	0.0967974	0.0947286	0.0978381	0.0946409	0.0707693	0.0234336	0.00181816	0	0	0	0.00074789	-0.00278751	-0.00354606	0.0274406	0.0156129	0.005808	0.0711756	0.0567723	0.0574092	0.133749	0.0919244	0.0318938	0.0379737	-0.0323948	-0.101569	-0.0170777	0.152998	0.124071	0.142063	0.155243	0.124759	0.0699209	0.0503893	0.00217656	-0.000468163	0	0	0	4.5086e-05	-0.00534928	-0.00261781	-0.00669052	-0.024645	-0.0722829	-0.0668206	-0.0943678	-0.0584457	0.0229955	-0.0470002	-0.112597	0.00449763	0.0421286	-0.0391396	0.0436712	0.0615036	0.0757412	0.0799983	0.0885109	0.0567726	0.0148361	0.0235026	0.00466657	0.000167761	0	0	0	-1.19932e-06	-0.000166214	-0.00321049	-0.00212111	-0.0159549	-0.0650082	-0.0785538	-0.0921603	-0.0483124	-0.0119407	-0.0559019	-0.104158	-0.0835836	-0.0264091	-0.000756754	0.0300771	0.00970406	-0.0023867	-0.00257256	-0.0133436	-0.0180445	-0.00499118	-0.00122699	0.000127359	0.000180194	0	0	0	0	-5.71711e-07	-0.000845803	-0.00240113	-0.00714915	-0.00734285	-0.00448482	-8.75717e-05	-0.00305146	-0.0073477	-0.0133169	-0.0182481	-0.01577	-0.00632513	0.00129448	0.00918715	0.00686089	0.00659176	-0.00358267	-0.00221046	-0.000738918	-3.83508e-05	-8.45902e-06	0	0	0	0	0	0	0	2.76736e-06	4.78321e-05	-3.2885e-05	4.62415e-05	0.000312654	0.000585726	0.000925005	0.00072422	0.00107928	0.000562899	0.000596781	0.000763546	0.00054606	0.000645312	3.84797e-05	-0.000170857	-0.000759405	-0.000438361	-0.00048705	3.41621e-05	0	0	0	0	
0	0	0	0	0	0	0	0	0	0	0	0	0	0	0	0	0	0	0	0	0	0	0	0	0	0	0	0	0	0	0	0	0	-3.69112e-07	-7.53513e-05	-0.000142791	0.000118368	0.000141209	-3.66166e-05	-0.000896717	-0.00237023	-0.00144681	-0.00144358	-0.00220766	-0.000512391	-0.0015989	-0.0123982	-0.00812189	-0.00368842	-0.0053023	-0.00106231	4.68641e-06	0	0	0	0	0	0	0	-3.62741e-06	-1.24732e-06	-8.77811e-05	1.0549e-05	-0.00157121	-0.00336251	0.00237101	0.00563678	0.00793341	0.00993085	0.0125821	0.00969137	-0.0184538	-0.0157294	-0.0290693	-0.0266454	-0.0376981	-0.00931944	-0.00298808	-0.00225123	-0.000425897	-0.00020709	-5.34854e-05	0	0	0	0	-1.52709e-05	-2.62172e-05	-0.00011586	0.000121078	-0.000307824	0.000427021	0.00331398	0.0148329	0.0320912	0.0440529	0.0236768	-0.00407279	-0.0102787	-0.0314366	-0.0106004	-0.0233127	-0.0431603	-0.0458886	-0.00325043	0.0346961	0.0096933	-0.00628762	-0.00300366	-0.000114674	-5.52478e-05	0	0	0	-4.9958e-05	-2.96844e-05	-0.000340072	2.68594e-06	0.00137103	0.0115766	-7.77605e-05	0.0051449	0.0192609	0.0360219	0.0432254	-0.00530281	-0.00142548	-0.0324973	-0.0133507	-0.0282017	-0.0236547	-0.0244488	-0.0102293	0.0206854	-0.00340007	-0.00111149	0.00781258	0.00285046	-2.63829e-05	-4.01261e-05	0	0	-5.66321e-06	-0.00340264	-0.0103931	-0.0122889	0.00505011	0.0166523	-0.0316179	-0.0386176	-0.00476866	0.0216469	0.0308962	0.0399211	-0.0184107	-0.0349827	-0.0354261	-0.0346703	-0.0155987	-0.00160848	0.0171084	0.0218025	0.00717741	-0.00319045	0.00151685	0.000164086	-0.000115933	-5.07067e-05	0	0	-0.000155337	-0.00791954	-0.0212823	-0.0289639	-0.0304911	-0.024391	-0.0466456	-0.0393131	-0.0291397	0.014861	0.00412924	0.00951404	0.0184604	0.0305533	0.0307238	-0.0440086	-0.00265696	0.0091788	-0.0173096	-0.0272921	-0.0330618	-0.0283542	-0.0192568	-0.0056138	-0.000271323	-7.04536e-05	0	0.000531564	-0.000519544	-0.0087736	-0.023486	-0.0367832	-0.0522819	-0.042568	-0.0361655	-0.0290726	0.00517029	0.0231114	-0.0106783	0.0149815	0.0325827	0.0235544	0.00822112	-0.0125076	-0.0105991	-0.0113541	-0.0574991	-0.0466406	-0.0341291	-0.0285968	-0.0221352	-0.0113841	-0.000173897	-0.000108615	-2.27857e-05	-0.000145498	-0.00302979	-0.0206398	-0.0263204	-0.0564501	-0.0588875	-0.0681533	-0.0718229	-0.0528938	-0.013185	-0.0170885	-0.000758336	0.00150707	0.0196531	0.00359435	-0.0484289	-0.052054	-0.024774	0.00435778	-0.0451288	-0.0642958	-0.0332546	-0.0386415	-0.032561	-0.0174875	0.000112106	-5.97701e-05	-1.89149e-05	-0.000256188	-0.0117262	-0.0259815	-0.0251656	-0.0515237	-0.0656641	-0.0721591	-0.0950837	-0.0251889	0.0297433	0.0386769	-0.0136062	-0.016136	0.0100428	-0.0549611	-0.121871	-0.103212	-0.0135228	-0.00557352	0.00467308	-0.0509113	-0.0326661	-0.042842	-0.0362263	-0.0130248	-0.00053285	-0.000383994	-4.53716e-05	-0.00038646	-0.00178899	-0.017016	-0.0487119	-0.0557174	-0.0596674	-0.0848983	-0.0802619	-0.0450951	-0.0181909	-0.0141888	-0.0875177	-0.0639894	-0.0752265	-0.15183	-0.124748	-0.0595807	-0.0185738	0.0133201	0.0185075	-0.00862427	-0.0538394	-0.0367872	-0.0158322	-0.00771657	-0.000831969	-0.000181965	-8.84977e-06	-0.000353969	-0.00200448	-0.0129581	-0.0479515	-0.0535238	-0.0623545	-0.111785	-0.11085	-0.0697723	-0.11076	-0.13608	-0.182035	-0.114992	-0.0942556	-0.144624	-0.107413	-0.0537938	-0.0151463	0.0319181	0.013869	-0.00937061	-0.0388579	-0.0110025	0.000594343	-0.00500175	-0.00241498	-7.56202e-05	0	-0.000205714	-0.00153176	-0.013461	-0.0455814	-0.0622858	-0.0720594	-0.129338	-0.160739	-0.170855	-0.154631	-0.169244	-0.163238	-0.088987	-0.0633582	-0.136254	-0.110263	-0.0844281	-0.0567789	-0.0159853	-0.0129117	-0.00871359	-0.0182036	-0.0064495	0.00965952	-0.000172521	0.00133624	-0.000114861	0	-8.19711e-05	-0.00122281	-0.00900905	-0.0481064	-0.0712691	-0.0909474	-0.105696	-0.126115	-0.121475	-0.117669	-0.0964068	-0.0464359	-0.0285691	-0.0912004	-0.117627	-0.0785625	-0.0841978	-0.0605309	-0.0235691	-0.0186057	-0.00919002	-0.0511919	-0.0112868	0.0229237	0.00923746	-0.00111078	0.000133764	0	-0.00582138	-0.00471398	-0.00123132	-0.0378896	-0.0896561	-0.08817	-0.0529496	-0.00799008	0.0487505	0.0576822	0.0746629	0.054371	0.000763232	-0.0534553	-0.0999276	-0.103036	-0.0654381	-0.0282227	-0.0154226	-0.0107914	-0.0514555	-0.0596644	0.00307426	0.0344676	0.00656254	0.000947168	2.00901e-05	-5.55148e-07	-0.0132404	-0.00864796	0.00251023	-0.025144	-0.0234049	-0.00853268	0.0593519	0.105256	0.13444	0.150117	0.13968	0.0768376	0.0381669	-0.0212635	-0.0629024	-0.0522925	-0.0705823	0.0263184	0.0610093	-0.0070054	-0.0358471	-0.011072	0.00253443	0.00736883	0.00219236	0.00329027	0.000438745	-3.16939e-06	-0.00625581	-0.0161232	-0.00268943	-0.000919125	0.0471603	0.118618	0.12187	0.109225	0.116163	0.104475	0.0798944	0.043087	0.0415872	0.0358637	0.018323	0.0311713	0.0322066	0.0331162	0.0353639	-0.0327604	0.0132058	0.0622997	0.0207825	-0.014483	0.00424663	0.00362628	0.000654665	0	-0.00216034	-0.0165872	-0.01874	0.00862	0.0916551	0.125537	0.0967537	0.0702531	0.0329757	0.00980395	0.0259637	-0.018891	-0.0332705	0.0143819	-0.0139429	0.0406401	0.00740645	0.0170653	-0.00280824	-0.0487542	-0.0188558	0.0340817	0.0198024	-0.0225552	0.0123231	0.00148294	0.000197507	-5.75891e-06	1.67148e-06	-0.00786264	-0.014868	0.0150689	0.0973618	0.0508204	0.0658066	0.0640909	0.0385187	0.00396174	-0.00142869	-0.00957445	0.014704	0.0289905	-0.000794089	0.0938229	0.0392572	0.0360687	0.0527741	-0.0174249	6.92938e-05	-0.0119186	0.01077	0.00668134	0.00740911	0.00109466	0.000301088	0	-0.000102564	0.00188589	-0.0066569	0.0309376	0.0929252	0.0457036	0.0870536	0.04834	-0.0264895	-0.0170987	0.00238875	-0.0248032	-0.0340023	-0.0285039	0.040981	0.0821243	0.0443424	0.0485049	0.0385302	0.00556301	-0.00533797	-0.0103124	0.00698604	-0.00386883	0.0108424	0.000823057	1.68412e-05	0	-0.000166027	0.00715892	0.0130012	0.0452242	0.109554	0.0868987	0.0997734	0.0621872	-0.00707598	-0.0344719	-0.0186878	-0.0197623	-0.0643016	-0.0695351	0.00290959	0.0438848	0.0311229	0.0175642	0.00435379	0.0211854	0.010654	-0.021567	-0.0163671	0.0008698	0.00469553	0.000471725	-7.51232e-06	0	7.22965e-06	0.00105715	0.0159945	0.0651141	0.0972639	0.0943926	0.0992147	0.0875414	0.0260182	-0.00460652	0.0177508	-0.014252	-0.0391886	-0.0326931	0.0142994	0.0332152	0.0484701	0.0368173	0.0563389	0.0391788	0.0623654	0.0308883	0.0236513	0.00292643	-0.00326132	-0.000604232	0	0	1.89576e-07	-0.00187787	0.00100299	0.00588834	0.0403417	0.0529628	0.0293798	0.0334236	-0.00311042	0.0312706	0.0113686	-0.0379107	-0.059006	-0.0888714	-0.0875835	-0.0497952	-0.00560469	0.0247159	0.0223159	-0.00538688	0.0224888	0.0340224	0.0257347	0.00311957	-0.00837993	-0.00502406	0	0	0	0.000214867	-0.00817575	-0.0144678	-0.0114957	-0.0280003	-0.0172797	-0.00442387	-0.00878282	0.0436092	0.017759	-0.0403252	-0.0931154	-0.122208	-0.131906	-0.0980015	-0.0593607	-0.0333404	-0.0450678	-0.0443887	-0.011768	0.00688802	-0.00351053	-0.0148563	-0.0125511	-0.00331584	0	0	0	-2.11881e-05	-0.0172218	-0.0188443	-0.0207117	-0.0246075	-0.0335535	-0.0541976	-0.0674362	-0.0720814	-0.0773676	-0.0709734	-0.0654151	-0.0628028	-0.0882253	-0.0787559	-0.0459701	-0.0418436	-0.0346469	-0.023296	0.0144028	0.0132751	0.00517878	0.00194249	0.0011649	0.00012637	0	0	0	7.90611e-06	-0.000131958	-0.000463339	-0.0102381	-0.0157262	-0.0155929	-0.0247997	-0.0445153	-0.0359785	-0.0280473	-0.0327447	-0.0336482	-0.0270723	-0.0176182	-0.00652157	-0.0109793	-0.00345014	-0.017291	-0.00374151	0.00244601	0.00080405	-0.000148273	-0.000290512	0.000132601	0.000139528	0	0	0	0	-7.13455e-07	8.28408e-05	-0.000185523	-0.0019011	-0.00465193	-0.00787242	-0.0189997	-0.0193874	-0.0150067	-0.0156847	-0.0168325	-0.0205245	-0.0161399	-0.0095433	-0.00735289	-0.0041677	-0.0011239	0.000264497	-1.88667e-05	-0.000443944	-5.82575e-05	-7.42647e-06	0	0	0	0	0	0	0	-2.88769e-06	-5.80617e-05	-0.000137408	-0.000361614	-0.000695062	-0.000985558	-0.00122842	-0.00110395	-0.00145418	-0.00185919	-0.0020824	-0.00193933	-0.00189849	-0.00131309	-0.000854038	-0.00026738	4.84168e-05	-3.342e-05	-7.61089e-05	-1.28086e-05	0	0	0	0	
0	0	0	0	0	0	0	0	0	0	0	0	0	0	0	0	0	0	0	0	0	0	0	0	0	0	0	0	0	0	0	0	0	1.00493e-05	0.000405099	0.000738659	0.000326903	7.57246e-05	0.000419421	0.000224145	0.000673977	0.000427773	9.85138e-05	0.000787492	0.000520857	0.000559885	-0.000754209	-0.00175998	-0.000452728	-0.00226663	-0.00173075	-2.46577e-05	0	0	0	0	0	0	0	0.000155392	5.34331e-05	4.12444e-05	0.000308399	-0.00863366	-0.00235929	-0.00649744	-0.0181811	-0.0215372	-0.0148287	-0.0105117	-0.00277923	0.00204081	0.00283704	0.0053079	0.0104558	0.0112016	0.00569943	0.0027165	0.000651266	0.000554453	0.000468846	0.000218443	0	0	0	0	-1.27308e-05	0.000481514	0.000484997	-0.00227766	-0.000300479	-0.00787349	-0.00620819	-0.0258002	-0.0313605	0.00519099	0.0232513	-0.0552984	-0.113656	-0.12298	-0.105473	-0.0713333	-0.017593	-0.00563835	0.00811486	0.00701305	-0.0136653	-0.0527265	-0.0651109	-0.014913	0.000109426	0	0	0	-5.95862e-05	6.04645e-05	-0.000522286	-0.00464638	-0.00550481	-0.0320075	-0.0376047	-0.046324	-0.0522954	-0.0522951	-0.136492	-0.163046	-0.133058	-0.0752627	-0.0737827	-0.0857437	-0.0943257	-0.156085	-0.18036	-0.110572	-0.102255	-0.0961406	-0.0391647	0.0118102	0.0212262	-0.00936676	0	0	-5.22598e-05	8.12291e-05	-0.00863984	-0.0160782	-0.0397803	-0.0740696	-0.136827	-0.151019	-0.103186	-0.0549146	-0.183327	-0.0967624	-0.0586116	-0.110604	-0.102889	-0.188134	-0.241448	-0.270193	-0.17722	-0.120468	-0.0844228	-0.0712088	-0.0691669	-0.0399252	-0.0201527	-0.0146775	0	0	0.00324461	-0.00141784	-0.0173665	-0.0298825	-0.0494024	-0.0882656	-0.15662	-0.13859	-0.0925908	-0.0838411	-0.180073	-0.189534	-0.0192359	-0.0986457	-0.235833	-0.193	-0.0805972	-0.00131597	-0.0657044	-0.100852	0.0916437	0.0799814	-0.0169764	-0.00613497	0.0276467	-0.00545123	0	-0.00141678	0.00284507	-0.00446393	-0.0151102	-0.0165151	-0.0954528	-0.145351	-0.0810069	-0.102444	0.0511063	0.0191425	0.0341526	0.0417908	0.0156155	-0.107726	-0.120038	-0.0885667	-0.0874789	-0.15153	0.0478585	0.182343	0.204411	0.150693	0.073021	0.0621736	0.0405947	-0.00155473	-1.42352e-05	-0.000725647	-0.000999083	-0.00317775	-0.00960308	-0.0174189	-0.105342	-0.134287	-0.00785215	-0.0506174	0.0294002	0.0629019	0.0553707	-0.0784634	0.014626	0.0302474	0.0963903	0.0899457	0.0505834	0.205946	0.333036	0.237716	0.175764	0.284421	0.36027	0.0962841	0.0105159	0.00270462	2.22529e-05	0.000344955	-0.00140343	-0.00969891	-0.0114286	-0.0614152	-0.0460541	-0.057785	0.00699673	-0.00790165	0.019292	-0.0360314	0.00746378	0.108509	0.099766	0.101997	0.192643	0.240337	0.350895	0.245101	0.273439	0.294674	0.197404	0.211588	0.357031	0.230684	0.0473865	0.0090884	5.35004e-05	0.000652337	0.00287522	-0.00196934	-0.0311067	-0.093347	-0.0774512	0.0224117	0.0613314	0.131357	0.0902819	0.145632	-0.0146673	0.147807	0.000762041	0.0312132	-0.0328835	0.0312469	-0.0792531	0.010629	0.129437	0.151652	0.111706	0.157341	0.271379	0.265289	0.0652965	0.00362188	2.59941e-05	-0.00488214	-0.00241442	-0.000728544	-0.00874917	-0.0850692	-0.0355197	0.00656832	-0.0411546	-0.108891	0.0615527	0.0648222	-0.00865302	-0.0170156	-0.139801	-0.153311	-0.121004	-0.174344	-0.307458	-0.327646	-0.306045	-0.120708	-0.0675257	0.0561631	0.128963	0.127814	0.0172424	-2.43901e-05	0	-0.00113014	-0.00474974	0.00198826	-0.0157658	-0.043291	0.0523132	-0.0396382	-0.00792743	-0.00131433	0.0860902	-0.00759648	0.0256807	0.0258311	-0.170437	-0.0716302	-0.218055	-0.423312	-0.551298	-0.662743	-0.479243	-0.36347	-0.340816	-0.211817	-0.106273	-0.02314	0.00488338	5.5921e-05	0	3.02529e-05	0.00131363	0.00874255	-0.0389456	-0.061394	0.0163662	-0.0914049	-0.0497995	0.0106461	-0.0162683	0.0518525	0.0998134	0.0113605	-0.110463	-0.169377	-0.100197	-0.0962005	-0.167949	-0.329569	-0.38672	-0.35013	-0.301183	-0.211179	-0.0977482	-0.034767	-0.00574503	4.85408e-05	0	-0.000115124	-0.00236509	-0.00252511	-0.0529615	0.000421555	-0.0299439	-0.113623	-0.039956	0.0598991	0.0603357	-0.0873317	0.00296721	-0.137029	-0.154102	-0.137037	-0.183509	-0.0410198	0.070836	-0.112272	-0.26291	-0.266712	-0.200169	-0.116621	-0.0369575	-0.0293419	-0.00890805	1.43057e-05	-3.78534e-07	-0.000134077	-0.00385903	0.024668	-0.0292881	-0.0344663	0.00759243	-0.0342942	-0.0394687	0.0279397	-0.0214049	-0.0946598	0.102096	-0.0747467	-0.186307	-0.169169	-0.155489	0.0217125	0.112282	0.0333211	-0.127476	-0.25174	-0.200245	-0.0776146	-0.0356023	-0.0307323	-0.0268572	-0.0121866	-2.16108e-06	-5.02733e-05	-0.00132156	0.0450937	-0.0212351	0.0251247	0.0188138	-0.0627768	-0.0642197	-0.0992451	-0.121664	-0.123689	-0.14072	-0.16949	-0.0775956	-0.197103	-0.114675	-0.0447222	0.0843873	0.0463129	0.0432489	-0.187946	-0.207976	-0.113567	-0.0690564	-0.0463965	-0.0171062	-0.000720682	0	-1.73451e-05	-0.00179193	0.00428756	-0.0881174	0.090319	0.158942	0.0130167	-0.0194709	0.0283297	-0.0412713	-0.0662084	-0.0900632	-0.128724	-0.141483	0.142638	0.0773035	0.00104063	0.10554	0.0664869	0.0636929	-0.124468	-0.126724	-0.0481855	-0.0778385	-0.064735	-0.00746796	-0.000293956	3.6489e-05	7.16559e-07	-0.000997893	-0.0381288	-0.139202	-0.021452	0.171137	0.00891475	-0.0460004	-0.0157269	-0.0621322	0.0460712	0.0786455	-0.0626267	-0.0853282	-0.0351017	0.0246968	-0.0534923	0.0152517	0.0184017	-0.0249676	-0.114706	-0.0989423	-0.101669	-0.100202	-0.0547625	-0.00210934	-0.000429638	0	1.90014e-05	-6.36682e-05	-0.0307834	-0.0865578	0.0158509	0.00834203	0.0415034	-0.0580271	-0.114289	-0.0616767	-0.060302	0.0376221	-0.0138183	-0.103883	0.0512363	0.0227859	-0.0311019	-0.0334644	0.03098	-0.00840016	-0.0739706	-0.0807207	-0.0815921	-0.0827647	-0.0713391	-0.00822277	-4.39303e-05	0	-8.49837e-05	-0.0011022	-0.0394301	-0.100665	0.00975522	-0.114319	0.00767365	0.0741069	-0.0403502	-0.0310653	0.0848311	0.0898551	0.0505487	-0.082524	0.0584956	0.100513	-0.00924191	0.017556	0.0404148	0.0411297	-0.0487263	-0.0357909	-0.0376501	-0.0569109	-0.0471216	-0.0019082	3.82488e-05	0	-5.37447e-05	-0.0016127	-0.0235482	-0.0933128	-0.0449391	-0.0837458	0.0795872	-0.0155535	-0.0171829	-0.0815237	0.0412928	0.0984898	0.0566404	0.0221401	0.0599672	0.0922213	0.0344796	0.0241915	0.0424744	0.0823325	-0.0558865	-0.0177234	0.00156362	-0.0196763	-0.000846169	4.88109e-05	0	0	-1.12326e-06	-0.000987997	-0.0154782	-0.052324	-0.048609	-0.102055	0.0107394	0.105118	0.0609503	-0.103075	-0.0200766	0.0655275	-0.0740168	0.0202367	0.0501757	0.0182717	-0.00325876	0.070466	-0.0219467	-0.00953398	-0.0506402	-0.0238648	0.0306384	0.0163653	0.00257623	0.00109327	0	0	0	-0.000362315	-0.00472553	-0.0168775	-0.0532819	-0.116061	-0.0681489	0.0435637	0.152955	0.0903922	0.0331263	-0.0195902	-0.0852718	0.0121898	-0.069967	0.0553178	-0.00505053	0.024199	-0.0296056	-0.0185907	-0.0776174	-0.0274136	0.0304917	0.0278296	0.00260474	-0.000251138	0	0	0	-1.36828e-06	-4.56116e-05	-0.0153242	-0.0692726	-0.0894531	-0.0698087	0.0616267	0.0682633	0.0167495	0.0622431	0.0760356	0.0611054	0.0914482	-0.0198942	-0.0223327	0.0210491	0.0265119	-0.0545401	-0.0624288	-0.0623319	-0.0140787	0.028768	0.0282821	-0.000209381	-0.00016919	0	0	0	-8.74046e-06	8.51326e-05	-0.00910493	-0.0425376	-0.0810956	-0.0587379	-0.141207	-0.210623	-0.188676	-0.12494	-0.0100388	-0.0713511	-0.120876	0.0388539	0.0500484	-0.0444521	-0.120666	-0.055404	-0.0205604	-0.00893868	-0.00656135	0.0273095	0.0204365	-0.000154129	-0.000178524	0	0	0	0	-9.70546e-07	-0.000731385	-0.01276	-0.05001	-0.079017	-0.148155	-0.200813	-0.221948	-0.131965	-0.0875907	-0.0956582	-0.127042	0.00239034	-0.0478552	-0.112323	-0.112809	-0.0128394	-0.00209051	-0.000447535	0.000522242	0.000164908	1.73889e-05	0	0	0	0	0	0	0	1.34547e-05	0.000123691	0.000380612	0.0015423	-0.00352782	-0.00992129	-0.00120933	-0.0109667	-0.028108	-0.0176844	-0.0091663	-0.0191618	-0.0140922	-0.00316448	-0.0134662	-0.00398438	-0.00192373	-0.00156665	-0.000107126	1.29414e-05	0	0	0	0	
0	0	0	0	0	0	0	0	0	0	0	0	0	0	0	0	0	0	0	0	0	0	0	0	0	0	0	0	0	0	0	0	0	1.51228e-06	0.000236471	0.000389064	-0.000103034	-0.000163165	-0.000183155	-0.000657871	-0.000452293	-0.000623487	-0.0021082	-0.00221907	-0.000764666	-0.000211032	-2.70375e-05	0.000109398	0.000117482	0.000132336	3.2175e-05	4.73408e-06	0	0	0	0	0	0	0	-1.16187e-05	-3.99519e-06	0.000174471	0.000307612	0.000531689	-0.000386108	-0.00183	0.00432642	0.00567811	0.00312827	-0.00395082	-0.00667161	-0.0013669	0.00490431	0.00514495	0.00351303	-0.000260324	-1.91675e-05	0.00242443	0.00317955	0.000890637	8.82045e-05	1.802e-05	0	0	0	0	-7.50115e-06	-5.35619e-06	0.000233227	-1.73047e-05	0.000512067	0.00183542	0.00299959	0.00533576	0.010251	0.0132382	0.0143974	-0.00124481	0.000183156	-0.000331337	0.00622055	0.0136096	0.0157786	0.00508475	0.0050469	0.00735733	0.0068059	0.00266155	0.00132766	0.000176696	0.000110653	0	0	0	-2.37878e-05	2.24636e-05	0.000362195	0.000975608	-0.00104021	0.00104523	0.00219797	0.0122364	0.0159517	0.0148717	0.0055665	-0.0204298	-0.0186641	-0.0119324	-0.0103847	-0.00136697	0.00788013	0.00285606	-0.00121185	0.00616152	0.0071983	0.00367971	0.000451188	0.000766723	0.00132417	0.00144847	0	0	6.13111e-06	4.06391e-05	0.00116885	0.0036144	0.00413485	0.00774241	0.0116768	0.0185688	0.00903775	-0.00233802	-0.0314471	-0.0554643	-0.0526748	-0.0518837	-0.0383899	-0.0495608	-0.0387914	-0.0337913	-0.0145909	-0.00638751	0.00191313	0.00530992	0.00467559	0.00449422	0.00482998	0.00214941	0	0	0.000289312	0.00105065	0.0048163	0.0109906	0.0174022	0.0277766	0.0381878	0.0333458	0.00145414	-0.0238269	-0.053603	-0.09971	-0.118401	-0.131554	-0.151633	-0.158629	-0.125301	-0.0934969	-0.0513384	-0.0185647	-0.00832259	-0.00246348	-0.000697369	-0.000456553	0.000111431	0.000326842	0	7.78432e-05	0.000649352	0.00272122	0.00940683	0.0146223	0.0249417	0.0383684	0.0479794	0.0308041	0.0107335	-0.0231795	-0.0708501	-0.113601	-0.13197	-0.134073	-0.134391	-0.146153	-0.11605	-0.079097	-0.0355592	-0.0200855	-0.0161174	-0.0155099	-0.0108641	-0.00334244	0.0012841	0.000114775	-4.36582e-05	0.00024008	0.000689816	0.00203814	0.0114428	0.0168269	0.0245126	0.0423203	0.0409629	0.02501	-0.00555127	-0.030861	-0.0508246	-0.0522261	-0.0260666	-0.0135735	-0.0202731	-0.0330516	-0.0411156	-0.0325682	-0.0204081	-0.0238501	-0.0180206	-0.0178697	-0.0129242	-0.00591457	0.000180624	-0.000232651	-2.68919e-06	0.000324752	0.000559851	0.00230034	0.0128104	0.017368	0.0210735	0.0243491	0.0245688	0.0100249	-0.0338183	-0.0363689	-0.00757855	0.0337771	0.0739327	0.0710318	0.0510196	0.0281229	-0.00589925	-0.0266481	-0.0333947	-0.0330049	-0.0220501	-0.0253091	-0.0133558	-0.00514097	-0.000620555	0.000452217	-6.47337e-06	0.000374384	0.001493	0.00494666	0.00676925	0.0192121	0.0295506	0.0178313	-0.0164029	-0.0482469	-0.0584267	-0.0310288	0.00619665	0.0588471	0.0791478	0.0775715	0.0440167	0.0109928	-0.019017	-0.0380389	-0.047175	-0.0460981	-0.0366018	-0.0359022	-0.0145334	-0.00613277	-0.00107429	-0.000231571	-4.16852e-06	0.000221011	0.00221503	0.00496762	0.00185977	0.0154459	0.0160886	0.00143167	-0.0307557	-0.0595314	-0.0615083	-0.0241222	0.0136995	0.0323071	0.0386911	0.026478	-0.0161634	-0.0391997	-0.0506164	-0.0526491	-0.0579581	-0.049486	-0.0488965	-0.0384564	-0.017815	-0.00728045	-0.00305563	-7.43265e-05	0	0.000255629	0.00216787	0.00296727	-0.00288236	0.00323186	0.00283846	-0.00481132	-0.0283517	-0.0560157	-0.0395228	-0.0408235	-0.0243106	-0.0170789	-0.0106376	-0.0447183	-0.0677213	-0.067489	-0.0517622	-0.0464983	-0.0513651	-0.0427627	-0.0490419	-0.0323375	-0.00845338	-0.00617777	-0.000119008	5.79825e-05	0	1.61638e-05	0.00170049	0.00092687	-0.00818287	-0.000798567	-0.00423912	-0.0207481	-0.0397833	-0.0487598	-0.0456403	-0.0777167	-0.100515	-0.0956146	-0.0924061	-0.107496	-0.0955258	-0.0515109	-0.0328855	-0.0227892	-0.0227605	-0.0243722	-0.0255185	-0.0134757	-0.00456121	-0.00198236	0.000552911	-6.18369e-05	0	7.80875e-05	0.00109894	0.000575407	-0.0106571	-0.00959935	-0.012058	-0.0195773	-0.0320508	-0.0515724	-0.0727512	-0.104112	-0.130031	-0.128292	-0.125493	-0.105461	-0.0675208	-0.0180687	-0.0046278	0.00671193	-0.000855335	-0.00515322	-0.00186383	0.0025137	0.000843632	-0.00124628	0.000217673	-5.37037e-06	5.31055e-07	0.000156841	0.000842131	0.00161229	-0.00948393	-0.0176656	-0.00663005	-0.0239156	-0.0462349	-0.0712748	-0.103551	-0.119097	-0.123843	-0.109439	-0.0998239	-0.0555867	-0.0187302	0.0131419	0.0184753	0.0170124	0.00969065	0.0196251	0.0215601	0.00401491	0.0045124	0.00472557	0.00277701	0.000192962	3.03184e-06	9.05951e-05	-0.000807136	2.53648e-05	-0.00467478	-0.00589553	-0.0260073	-0.0419695	-0.0503539	-0.0592656	-0.0975061	-0.101374	-0.0879903	-0.0708813	-0.0600607	-0.0401822	-0.00646823	0.0258442	0.0337888	0.0344912	0.0278425	0.0402433	0.0284925	0.0145757	0.0173347	0.0135176	0.00328745	0.00029037	0	2.77825e-05	-0.00287431	0.00244848	-0.00204104	-0.0115186	-0.0330189	-0.0525703	-0.0513363	-0.0639711	-0.0991119	-0.0900966	-0.0683982	-0.0543766	-0.0507866	-0.0235521	-0.0145305	0.00604747	0.028997	0.0278043	0.0200556	0.0380859	0.0400397	0.0236812	0.0160726	0.0119802	0.00398929	0.00150955	1.91913e-05	5.00666e-07	-0.00187514	0.00375047	0.000934559	-0.0052586	-0.0179703	-0.042989	-0.0593785	-0.0762979	-0.102992	-0.0964098	-0.0721072	-0.0602234	-0.0418282	-0.0228304	-0.0112791	-0.00498535	0.0177434	0.0118417	0.00944263	0.0248886	0.0248385	0.0273853	0.0190603	0.00448076	0.00312716	0.00227437	0	-3.84712e-05	-0.00017388	0.00287192	0.000190552	-0.00619498	-0.0071583	-0.0151328	-0.0324575	-0.0477755	-0.0775896	-0.0603944	-0.0389387	-0.0217774	0.00547226	0.0143764	0.0122129	0.0040353	-0.00529872	-0.0165252	-0.002626	0.000892381	0.00270558	0.0154567	0.00988585	-0.00186539	-0.000997888	3.4822e-05	0	-0.000245336	2.01668e-05	0.000676304	-0.000779983	-0.00590201	-0.00751081	-0.0150387	-0.0277295	-0.0386585	-0.0282851	-0.0116899	0.000964065	0.00121203	0.0048935	0.00422864	-0.00102916	-0.0124483	-0.0232609	-0.0292684	-0.0166499	-0.013365	-0.0150694	-0.0016778	0.010381	0.00543888	0.000105053	1.29266e-06	0	3.3942e-06	0.00043264	-0.000520575	-0.00314924	-0.00659021	-0.0149271	-0.0154789	-0.0337346	-0.0402019	-0.0332578	-0.0044648	0.00361026	-0.00333152	0.00394674	-0.00264264	-0.00115687	-0.00668789	-0.0234151	-0.020493	-0.0192559	-0.00586929	-0.0153207	-0.00951161	-0.000393742	-0.000166413	9.17393e-05	0	0	1.03568e-07	0.000317318	0.000655568	4.84161e-05	-0.00703173	-0.0174155	-0.0240844	-0.0362016	-0.0497053	-0.0538821	-0.0484873	-0.0291081	-0.020937	-0.017773	-0.00885895	-0.0180198	-0.0222736	-0.0285794	-0.0167233	-0.0102369	-0.0112559	-0.0244786	-0.0175269	-0.00140376	-0.00236349	1.30807e-05	0	0	0	0.000131091	0.000973624	0.00103842	-0.00280696	-0.00673855	-0.0145454	-0.0307575	-0.031614	-0.0406578	-0.0549678	-0.068466	-0.062975	-0.0371205	-0.017047	-0.0250248	-0.0327433	-0.0336535	-0.022266	-0.0159458	-0.0152347	-0.0193728	-0.0145921	0.000129699	-0.00172382	5.94367e-05	0	0	0	1.74337e-05	0.000403312	0.000801725	0.000766268	0.0011013	-0.00227489	-0.00777387	-0.00904447	-0.0133721	-0.019253	-0.0327239	-0.0226697	-0.00270689	-0.00202368	-0.0165607	-0.0130547	-0.018556	-0.0196588	-0.0109779	-0.00686781	-0.0141139	-0.0144443	-0.000604929	0.000120616	3.2412e-05	0	0	0	-1.4844e-05	1.00649e-05	0.000756875	0.000415343	0.000776678	0.00420529	0.00612316	0.0105432	0.0109099	0.0150353	0.0153783	0.0219441	0.0276385	0.0216436	0.0103786	0.00311436	-0.00461237	-0.00866662	-0.00936966	-0.00636031	-0.00525764	-0.00654895	-0.000208888	9.7064e-06	3.35326e-05	0	0	0	0	-2.44798e-07	-0.000253675	-0.00034888	0.00108929	0.00432947	0.00845366	0.0147433	0.0165017	0.0178253	0.0186102	0.0230698	0.022992	0.0212891	0.0140575	0.0091751	0.00288437	0.000956102	-0.00162808	-0.00119291	5.76402e-05	2.55225e-05	-1.37683e-05	0	0	0	0	0	0	0	5.15312e-06	6.71007e-05	3.83675e-05	-0.000444002	0.000104933	0.000581959	0.000852415	0.000554271	0.00115912	0.00137062	0.00196767	0.00189534	0.00203724	0.00157183	0.000749229	6.71398e-05	-0.000421865	-0.000162736	-0.000152288	5.46267e-05	0	0	0	0	
0	0	0	0	0	0	0	0	0	0	0	0	0	0	0	0	0	0	0	0	0	0	0	0	0	0	0	0	0	0	0	0	0	5.47465e-05	0.00225446	0.00305425	0.000341229	5.25521e-05	-8.4642e-05	-0.000696485	-0.000445078	-0.000313092	-0.000524081	-0.000975171	-0.000872541	-0.000441985	-0.000307568	-0.00011962	6.2307e-06	-1.80531e-06	-1.50744e-06	-5.60526e-06	0	0	0	0	0	0	0	-1.01981e-05	-3.50672e-06	0.00017269	0.00242746	0.00582899	0.00673813	0.00984175	0.00486469	-0.00158182	-0.0012882	-0.0107892	-0.0201602	-0.0301565	-0.017936	0.00276297	-0.00336328	-0.0108302	-0.00631519	-0.00110485	0.000354989	9.33566e-05	-4.77789e-05	-2.80847e-05	0	0	0	0	-1.22686e-05	5.63719e-06	1.54861e-05	0.00102456	0.00298749	0.00732193	0.0104302	0.017496	0.00805104	0.00418944	-0.00498366	-0.0137337	-0.0246472	-0.03054	-0.00690033	0.0141135	-0.00789464	-0.0161072	-0.00412856	-0.000489181	0.00118955	0.000825228	0.000785752	0.000101139	8.17505e-05	0	0	0	-3.81079e-05	-3.56205e-06	-1.57361e-06	4.11236e-05	0.0040782	0.00643117	0.0065462	0.0133791	0.00933202	0.00900301	0.0217523	0.0114766	0.0221721	0.0244616	0.0246953	0.0280359	0.00705804	-0.0148102	-0.00854794	-0.00699914	-0.00313459	0.000352423	0.000672146	-5.33614e-05	5.53718e-06	8.8982e-05	0	0	2.12869e-06	-0.000161562	0.000297731	-0.00444821	0.0024621	0.0109232	0.0138782	0.0203223	0.0204197	0.0146651	0.00652044	0.000530025	0.0079886	0.00909416	0.0139203	0.0106711	0.00495191	-0.00456758	0.000226091	-0.00190307	-0.00146431	-0.00200061	0.000271382	0.000164692	0.000207628	0.000138395	0	0	-0.000317693	-0.000585233	-0.000394224	-0.00772709	0.00075619	0.0120967	0.0181479	0.0181578	0.00374028	-0.013774	-0.0141157	-0.0225775	-0.0238762	-0.0144421	-0.0225763	-0.0237742	-0.0221345	-0.0290754	-0.0218991	-0.00777977	-0.0120542	-0.0108983	-0.00256672	0.00078635	0.000446519	0.000265185	0	-2.89517e-05	-0.0010116	-0.00227299	-0.00135658	-0.0133623	-0.0102667	-0.0126318	-0.00350077	-0.0188333	-0.0392204	-0.0533185	-0.0399243	-0.0531939	-0.06263	-0.0758875	-0.0618677	-0.0755195	-0.0891039	-0.0723283	-0.0634184	-0.0404311	-0.0188029	-0.0259026	-0.00717058	0.00132947	0.00177399	5.75951e-05	-4.35878e-05	-0.000178626	-0.00186954	-0.00457979	-0.0110589	-0.0188179	-0.0316267	-0.0354812	-0.0232965	-0.0217395	-0.034166	-0.0382067	-0.0690373	-0.107136	-0.125091	-0.139593	-0.126086	-0.115402	-0.125268	-0.101595	-0.0824055	-0.0702639	-0.0411587	-0.0199603	-0.0138481	-0.000482292	0.000929201	-0.000174598	-2.47206e-05	-0.000329828	-0.00206061	-0.0055617	-0.0118332	-0.0175964	-0.029444	-0.0317421	-0.0353204	-0.0342496	-0.0212558	-0.00738548	-0.0331104	-0.079697	-0.122384	-0.118273	-0.116382	-0.114762	-0.101673	-0.094996	-0.0798381	-0.0746555	-0.0399584	-0.0217066	-0.0181817	-0.00683504	-0.00523339	-0.00643535	-5.93738e-05	-0.000364555	-0.00234063	-0.00591854	-0.00993715	0.00922867	-0.0166724	-0.0398687	-0.0629398	-0.0754559	-0.0722339	-0.0405132	-0.0146747	-0.0443268	-0.096327	-0.0863762	-0.0886727	-0.0933514	-0.0881284	-0.0744325	-0.0750883	-0.0582031	-0.0370789	-0.0265664	-0.0198452	-0.0122213	-0.00528178	-0.0019661	-2.12665e-05	-0.000352052	-0.00205431	-0.00693224	-0.0176465	-0.0176169	-0.0414562	-0.0665832	-0.0800168	-0.103644	-0.0909975	-0.0503727	0.0151344	-0.0435283	-0.0722284	-0.0578726	-0.0766065	-0.0896352	-0.0858845	-0.0652675	-0.0706036	-0.0627836	-0.0355049	-0.0217744	-0.00360539	0.000977007	-0.00154288	-0.000105295	0	-0.000149709	-0.00116901	-0.00652398	-0.0189161	-0.0321868	-0.0469602	-0.0593548	-0.0649233	-0.0910521	-0.0677649	0.000250029	0.00644178	-0.0520393	-0.0318122	-0.0396227	-0.057885	-0.0787771	-0.0692189	-0.0661774	-0.0723633	-0.0567059	-0.0391159	-0.0168358	0.00951097	0.0095209	0.00242672	-0.000164109	0	-4.63099e-05	-0.00061842	-0.00400139	-0.0216719	-0.031739	-0.027697	-0.0308014	-0.0296396	-0.0302178	0.0150768	0.0448718	-0.021729	-0.0446488	-0.0336812	-0.0362229	-0.0413431	-0.0616591	-0.0478248	-0.0581739	-0.0545876	-0.0545247	-0.0385667	-0.0173574	0.0139294	0.0133373	0.00179631	-3.98899e-07	0	-0.000146784	-0.000361904	-0.00158232	-0.0149813	-0.0237258	-0.00591033	0.00391481	-0.002034	0.014634	0.0688717	0.0419325	-0.031432	-0.0127293	-0.0017096	-0.0196238	-0.0334335	-0.0611759	-0.0508145	-0.0497428	-0.0640571	-0.042807	-0.0260796	-0.0151239	0.0105284	0.017896	0.00109908	1.3368e-05	-2.33756e-07	-0.000346232	-0.000297754	0.00154615	-0.0103689	-0.00389947	0.0250906	0.0362244	0.022971	0.0339854	0.0481608	0.0163502	-0.00749401	0.0305363	0.0336306	0.00335358	-0.0251787	-0.0537107	-0.0357089	-0.0229223	-0.0302925	-0.0181369	0.0071301	0.0196287	0.0423522	0.0209593	0.00775695	0.000577363	-1.33454e-06	-0.000168355	-0.0022439	-0.000792878	-0.00104855	0.0191773	0.0222861	0.0308289	0.0239078	0.0357836	0.00551842	-0.00230947	-0.0299761	0.0226026	0.0658185	0.0167238	-0.0283551	-0.0173148	0.00676755	0.0257752	0.0380194	0.0567013	0.0599466	0.0668206	0.0620805	0.0395207	0.0122579	0.000957199	0	-5.38253e-05	-0.00408505	0.00241407	0.00966989	0.0275256	0.033072	0.0340278	0.011732	-0.0191549	-0.0595742	-0.0554985	-0.0597124	-0.010142	0.00949619	-0.0231463	-0.0503255	-0.0149464	0.0370011	0.0509392	0.0580846	0.0866616	0.0944927	0.0782474	0.0608877	0.0182148	0.00727649	0.000132219	-2.86462e-05	1.39935e-06	-0.00272692	0.00395948	0.0132373	0.0378733	0.0387761	0.0305037	-0.0123821	-0.0312055	-0.0443876	-0.0738278	-0.0775879	-0.0368813	-0.0358364	-0.0689529	-0.0503084	-0.00435958	0.0170734	0.0151904	0.0282949	0.0385268	0.0406658	0.0422376	0.0428925	0.00787422	-0.00217034	0.000382872	0	-0.000132639	-0.0013483	0.00342954	0.00626805	0.0335593	0.0386252	0.0370983	0.0119337	0.0151234	-0.00336305	-0.0306989	-0.033938	-0.00256705	-0.0257957	-0.0437872	-0.0324695	-0.0188271	-0.00478714	-0.00768932	0.01079	0.00918396	0.0249254	0.0252157	0.0186162	0.00541212	-0.0043078	3.03838e-05	0	-0.000280865	-0.000457214	0.00606783	0.00298412	0.0140648	0.0344836	0.0428482	0.0181062	0.0156464	0.00838562	0.00658791	-0.00255728	-0.0269851	-0.0379181	-0.0524498	-0.0451086	-0.0358295	-0.0230755	-0.0146812	-0.00266678	0.00833485	0.010924	0.0113373	0.0117609	0.0056461	0.000123559	-1.23909e-06	0	9.90038e-06	0.00108516	0.00447734	-0.00647513	-0.00348229	-0.00365159	0.00910116	0.00733457	-0.000903001	-0.0116526	-0.0128537	-0.0245301	-0.025784	-0.0346819	-0.0484736	-0.06169	-0.0425875	-0.0198037	-0.00277118	0.00205527	0.0107875	0.0109108	0.0105576	0.00157562	0.00269223	0.000325755	0	0	2.38208e-07	0.00067307	0.00270553	-0.00620665	-0.00800414	-0.00970258	-0.000840496	0.00998892	-0.0051684	-0.0193538	-0.0538091	-0.0799443	-0.0781951	-0.0739057	-0.0698257	-0.0786178	-0.0468628	-0.019705	-0.00227809	0.0111207	0.0192818	0.000241206	0.0022179	-0.00252115	0.000158568	-0.000923353	0	0	0	0.000212752	0.00145029	-0.00358568	-0.00912332	-0.00692072	-0.00804911	-0.00941422	-0.01889	-0.0445798	-0.0775133	-0.105969	-0.125978	-0.119214	-0.107746	-0.0713948	-0.0400498	-0.0232128	-0.00655994	0.00929592	0.00556577	-0.00182597	0.00386332	0.00161059	-0.00147852	-0.000684428	0	0	0	-7.40097e-05	-0.000935406	-0.00268292	-0.00916306	-0.0146001	-0.0204177	-0.0233962	-0.0328145	-0.0664007	-0.0864026	-0.106834	-0.105186	-0.0956391	-0.076012	-0.0531587	-0.0315583	-0.0248765	-0.0142353	-0.00298305	-0.00310982	-0.00922525	-0.00189435	0.00252216	0.00150579	0.000192801	0	0	0	1.49084e-06	-0.000161335	-0.000824718	-0.00343853	-0.00692168	-0.0131742	-0.0213953	-0.0340358	-0.0540976	-0.059209	-0.0656817	-0.0599274	-0.0519086	-0.0441942	-0.0314976	-0.0212117	-0.0166999	-0.0129823	-0.00872276	-0.0103748	-0.0106726	-0.000777103	0.000319575	0.000175314	0.000206397	0	0	0	0	-3.65538e-07	-1.68781e-05	-0.000597326	-0.00215272	-0.00514319	-0.00980126	-0.0135548	-0.0162511	-0.0204329	-0.0223305	-0.0231548	-0.0253628	-0.026147	-0.0179536	-0.0142337	-0.00925975	-0.00576847	-0.00419438	-0.00201958	-0.00281462	-0.00122714	-1.13267e-05	0	0	0	0	0	0	0	-3.89587e-06	-3.192e-05	-0.000143221	-0.000530724	-0.000709685	-0.000803613	-0.00105785	-0.000993357	-0.00139657	-0.00172843	-0.00199109	-0.00176383	-0.00168913	-0.00121461	-0.00104677	-0.000502163	-0.000180459	-0.000244618	-0.000164619	8.91942e-06	0	0	0	0	
0	0	0	0	0	0	0	0	0	0	0	0	0	0	0	0	0	0	0	0	0	0	0	0	0	0	0	0	0	0	0	0	0	-6.32771e-06	-0.000220846	-0.00037225	2.60702e-05	0.000128618	-5.02934e-05	-0.000657847	-0.000227037	-2.61884e-05	-8.30666e-05	-0.000627321	-0.000518389	-0.000456854	-0.00187191	-0.00283797	-0.000581768	-0.000113358	-3.87611e-05	-3.82267e-05	0	0	0	0	0	0	0	4.21986e-06	1.45104e-06	-0.00013829	-3.00505e-05	-0.000242931	-0.00155588	-0.00203842	-0.00254912	-0.00303679	-0.000886322	-0.00524871	-0.0107435	-0.0152466	-0.0120195	-0.00872983	-0.00563069	0.000438552	0.00220155	0.00237592	0.000581442	0.000126439	-8.70337e-05	-9.04294e-05	0	0	0	0	-1.77546e-05	2.20415e-05	-8.94094e-05	-9.78753e-05	0.000242347	0.000179845	-0.000982983	0.00034181	9.6091e-05	-0.000208912	-0.00842351	-0.0186508	-0.02118	-0.010399	-0.00860777	-0.0178871	-0.011501	0.00776919	0.00586799	0.00170202	-0.000846665	-0.00107192	0.00236724	-1.36716e-05	8.79581e-05	0	0	0	-5.80194e-05	-5.13178e-05	-0.000166646	-0.000514314	0.00138484	0.00359872	0.00110332	0.00336226	-0.00375739	-0.0141973	8.30429e-05	0.00746477	0.0109891	0.0173071	0.00710893	0.00430615	0.0124806	0.00384344	0.0015563	-0.017426	-0.0188739	4.89873e-05	-0.00135733	-0.000137127	-0.000122355	0.000104597	0	0	-6.09443e-06	-0.000266559	-0.000451152	-0.000842393	-3.81495e-05	0.00260773	0.000624978	-0.000652493	-0.00122179	0.00150781	-0.00354759	0.0160213	0.0305268	0.0295981	0.0176966	0.0121328	0.0164069	0.00604052	-0.00419706	-0.0199221	-0.00912782	-0.00311507	-0.00374784	-0.00246852	0.000165114	0.000138939	0	0	-0.000416037	-0.0013645	-0.00222595	-0.00109756	-0.00435861	-0.0058899	-0.010839	-0.0122874	-0.0168482	-0.00930979	0.00397329	0.0336598	0.0471512	0.0547662	0.0306787	0.0332377	0.0250072	0.00946612	-0.00777191	-0.0160009	-0.016621	-0.0034669	0.000812786	0.00105104	0.000427162	0.000325358	0	-9.31575e-05	-0.00121485	-0.00418472	-0.00350467	-0.00359462	-0.0146536	-0.0260072	-0.0339771	-0.0513081	-0.0458461	-0.0448192	-0.0264744	-0.00503867	-0.000359252	-0.0128909	-0.0302983	-0.0395893	-0.0507448	-0.0378795	-0.0442286	-0.0416885	-0.0338781	-0.0155007	0.00388621	-0.00437531	0.00216526	0.000177197	-8.0468e-07	-0.000380706	-0.00218864	-0.00646399	-0.00669929	-0.0120172	-0.0276274	-0.0372434	-0.0552192	-0.06677	-0.0734836	-0.0717359	-0.0702364	-0.0807401	-0.0954779	-0.113086	-0.103778	-0.101107	-0.0976521	-0.0750941	-0.0562235	-0.0620184	-0.0520751	-0.0332758	-0.0163724	-0.0118388	0.00126492	-0.000172921	-1.79888e-05	-0.000596665	-0.00303197	-0.00800539	-0.0132573	-0.0221872	-0.0369615	-0.0469486	-0.0610483	-0.0780289	-0.0734415	-0.0637601	-0.0780867	-0.102438	-0.148019	-0.15083	-0.151437	-0.145439	-0.0998614	-0.0935862	-0.0656094	-0.072915	-0.0628401	-0.0457565	-0.0238048	-0.0134793	0.000691545	-0.000912291	-4.32478e-05	-0.000662148	-0.0038031	-0.00966894	-0.0151142	-0.0236006	-0.0314111	-0.0365954	-0.0527735	-0.0589446	-0.067429	-0.0513496	-0.0539595	-0.0896014	-0.122789	-0.131781	-0.136015	-0.108954	-0.0975934	-0.0786215	-0.0655081	-0.0596269	-0.0519429	-0.032326	-0.0106095	-0.00316989	-0.000616551	-0.000462031	-2.08925e-05	-0.000583131	-0.00415186	-0.0102021	-0.0147395	-0.0201873	-0.0244944	-0.0354452	-0.0419029	-0.0446754	-0.0701089	-0.0414356	-0.0319971	-0.0469878	-0.0985309	-0.113388	-0.0960319	-0.0741061	-0.0763903	-0.0552224	-0.0484795	-0.0433938	-0.0313874	-0.00984047	0.00680182	0.00340495	-0.00136031	-0.000129015	0	-0.000356924	-0.00286964	-0.00910837	-0.014006	-0.0153047	-0.0183756	-0.0274005	-0.0321493	-0.0336576	-0.0450769	-0.0200707	0.0152363	-0.00216508	-0.0472207	-0.0717024	-0.067875	-0.0739713	-0.0532152	-0.020292	-0.0243834	-0.00997726	0.000777248	0.00104353	0.00900145	0.00649997	-0.000163324	-0.000320396	0	-2.26799e-05	-0.0016947	-0.00614441	-0.0189165	-0.0132955	-0.00447061	-0.00938456	-0.00259014	0.00915073	0.00892987	0.0339523	0.0547219	0.0211491	-0.02315	-0.0380994	-0.0473966	-0.0412104	-0.0372683	-0.0231651	-0.0257432	-0.0102132	-0.00999078	-0.00923858	0.000883421	0.00397782	-0.000310778	-0.000177059	0	-0.000195029	-0.000972828	-0.00824799	-0.0163151	-0.013825	-0.00524141	0.00781442	0.0311224	0.0424716	0.0529026	0.0688133	0.0577162	0.0235178	0.00231042	-0.0167748	-0.032283	-0.0324474	-0.0189632	-0.0310985	-0.0302531	-0.0170631	-0.0247071	-0.0241185	-0.00629835	-0.00369921	-0.00320344	-2.21195e-06	-1.1236e-06	-0.000459971	-0.000741196	-0.0102652	-0.0171271	-0.00846609	0.00394096	0.0366631	0.0623018	0.0744716	0.0844179	0.0676095	0.0324542	0.0293944	0.00395564	-0.0235915	-0.0287062	-0.022272	-0.0149387	-0.0122858	-0.00250017	-0.00317245	-0.0129834	-0.0227768	-0.0118591	-0.00448031	0.00101921	0.000255097	-6.41476e-06	-0.000270466	-0.00133163	-0.0111994	-0.0204975	-0.00361028	0.025095	0.0576594	0.0639871	0.0751259	0.0680717	0.0415077	0.0275392	0.000317478	-0.000482817	-0.0155256	-0.0212873	-0.0185519	-0.0114803	-0.00962899	0.00530459	0.0184533	0.0019488	-0.0158289	-0.0184767	-0.00205106	0.00164011	0.000451427	0	-8.42399e-05	-0.000926548	-0.0104886	-0.0200154	-0.00419515	0.0403365	0.046719	0.0445462	0.0387731	0.0334783	0.0261551	0.00422017	-0.0171892	-0.0261227	-0.0434745	-0.0458678	-0.0330549	-0.00372956	0.00153444	0.0232066	0.0337474	0.0209125	0.00634093	-0.0135541	-0.0133228	0.00249014	8.92293e-05	-6.02697e-05	-5.94767e-07	-0.000598182	-0.00549601	-0.00607505	-0.00101532	0.022965	0.0315183	0.023854	0.0286361	5.59331e-05	-0.00767714	-0.0215824	-0.0203302	-0.0279068	-0.0423528	-0.0413886	-0.0381615	-0.0106747	0.0323087	0.0345116	0.0370563	0.0338006	0.027715	-0.00249623	-0.013159	5.24575e-05	8.18194e-05	0	-9.03989e-05	-0.00119439	0.000674016	0.00331397	0.0140035	0.00934211	0.0195444	0.0318673	0.0156861	-0.00206563	-0.00164986	-0.0304475	-0.0344922	-0.0237863	-0.0307114	-0.0306521	-0.0307198	0.00376899	0.0200765	0.0269181	0.0338446	0.0330488	0.0158963	-0.0133274	-0.0156046	0.000514994	-4.9329e-06	0	-8.18094e-05	-0.00065434	0.000948662	0.00295772	0.0170844	-0.000365054	0.0141701	0.03288	0.0249473	0.0125955	0.00576617	-0.0257936	-0.0466491	-0.051386	-0.0414271	-0.0352534	-0.0155761	0.009474	0.0260265	0.0303198	0.0279022	0.0270801	0.0143547	-0.0162709	-0.0118522	0.000477148	-3.60481e-06	0	-2.1323e-05	0.000470748	0.00155194	0.00124951	0.00913613	-0.00128846	0.00337695	0.0294277	0.0322679	0.0206354	-0.014193	-0.042849	-0.0444946	-0.0556035	-0.0460082	-0.0377069	-0.00368032	0.0195925	0.0370039	0.0272517	0.0265064	0.019464	0.00943104	-0.0166991	-0.00343513	7.00097e-05	0	0	-5.34876e-07	0.000219385	0.000963374	0.000736151	0.00278703	0.00821195	0.0137094	0.0261386	0.0188385	0.00989638	-0.037495	-0.0607655	-0.0503427	-0.0564255	-0.0475682	-0.0345466	0.000976726	0.027476	0.0320726	0.0210494	0.0174989	0.010196	0.00801086	-0.00315709	-0.00252889	-0.00147243	0	0	0	-3.0264e-06	0.000302986	-0.00370939	-0.00446246	0.00291963	0.00459169	0.0150337	0.000771324	-0.0307688	-0.0538365	-0.0684402	-0.0840311	-0.0766323	-0.0713455	-0.0393894	-0.00389835	0.0156271	0.0188287	0.0141444	0.0106218	0.00317985	0.00694732	-0.0018814	-0.00343583	-0.00103222	0	0	0	-0.000122539	-0.00100449	-0.00593224	-0.0115907	-0.0125203	-0.0183564	-0.0271664	-0.0484865	-0.0714529	-0.0722221	-0.0798401	-0.0868461	-0.0758173	-0.0689208	-0.0474039	-0.022107	-0.000206892	0.00441946	0.00390472	0.00222591	-0.0025158	0.0043571	0.00245247	0.00115307	0.000112328	0	0	0	5.15628e-06	-0.000146125	-0.00117064	-0.00510257	-0.0102281	-0.0196958	-0.0373274	-0.0559489	-0.0630495	-0.066568	-0.0702033	-0.0694813	-0.0661479	-0.0502081	-0.043209	-0.0293777	-0.00957613	-0.00917933	-0.0109004	-0.00921458	-0.00735751	0.0017267	0.000157829	0.000115974	0.000122009	0	0	0	0	-4.25208e-07	0.000472792	0.000396444	-0.00269195	-0.00914449	-0.0177115	-0.026633	-0.0311299	-0.0363564	-0.0391659	-0.0427614	-0.0403022	-0.0351125	-0.0285051	-0.0212738	-0.0127848	-0.0076423	-0.00273727	-0.00079092	-0.000765743	-0.00013429	-1.87572e-05	0	0	0	0	0	0	0	-7.06331e-06	-7.18005e-05	-0.00020722	-0.00069997	-0.00133394	-0.00161551	-0.00201946	-0.00193467	-0.00290745	-0.00325448	-0.00405472	-0.00345052	-0.00327516	-0.00243694	-0.00185704	-0.00081582	3.68078e-05	-0.000187941	2.58206e-05	-6.44844e-05	0	0	0	0	
0	0	0	0	0	0	0	0	0	0	0	0	0	0	0	0	0	0	0	0	0	0	0	0	0	0	0	0	0	0	0	0	0	3.82017e-05	-0.000490285	-0.00124544	-0.00521216	-0.00505216	-0.000509327	-0.00249821	-0.00672544	-0.00462936	-0.018889	-0.0175591	0.00179387	0.00013891	-4.09481e-05	-0.000185701	-0.00110233	-2.79053e-05	8.39633e-07	7.66895e-06	0	0	0	0	0	0	0	-1.26519e-05	-4.35049e-06	0.000349789	-0.000702083	-0.00152104	-0.00232516	0.00966337	0.022406	0.0261612	-0.0097691	-0.0668197	-0.0897118	-0.0865891	-0.0104129	-0.00668948	-0.0374533	-0.0414118	-0.0317214	-0.0198167	-0.00651198	-0.0124467	-0.00435346	8.36736e-05	0	0	0	0	1.73526e-05	-2.12628e-05	0.000248128	0.000643925	-0.000453583	0.00604066	0.0343669	0.0621612	0.0681968	0.057831	0.00145906	-0.0789307	-0.0894121	-0.0627843	-0.00659682	-0.00781265	-0.0656587	-0.0627209	-0.0477337	-0.0392118	-0.0274901	-0.0285764	-0.0214708	-0.00886185	-6.36907e-05	0	0	0	5.87097e-05	3.43609e-05	0.000193688	0.00487629	0.0179414	0.0254657	0.0558618	0.0794672	0.0771745	0.0569937	0.0141844	-0.0437536	-0.0170572	-0.0681022	-0.0252992	-0.0200345	-0.0770074	-0.0703679	-0.111113	-0.0991521	-0.0725437	-0.0297044	-0.0292604	-0.00880649	-0.000156489	-0.000236446	0	0	1.00433e-05	0.000120341	0.000724633	0.00303306	0.0343871	0.0653252	0.0419211	0.0484364	0.0259418	0.052402	0.0178744	-0.0577721	-0.105108	-0.0919866	-0.0306136	-0.0119309	-0.0570601	-0.0883807	-0.12444	-0.0955653	-0.0566171	-0.027313	-0.020295	-0.00934859	-0.000374719	-0.000327092	0	0	-0.000191465	0.000670187	0.00698492	-0.000623512	0.0128902	0.0249775	0.00738015	0.0524401	0.0627696	0.0741041	-0.0425243	-0.0091434	-0.169945	-0.127317	-0.0778023	-0.0716147	-0.102885	-0.137651	-0.0934481	-0.0301426	-0.0357338	-0.0356242	-0.0109335	-0.00852107	-3.57132e-05	-9.40715e-05	0	0.000106772	-0.000381501	0.00138319	0.00733219	-0.0493584	-0.0090366	-0.0302188	-0.00683767	0.0811259	0.0783502	0.0432138	-0.0770565	-0.0931822	-0.209019	-0.196234	-0.104499	-0.0535709	-0.0877139	-0.0576512	-0.0472097	-0.0402611	-0.0186596	-0.0628752	-0.0421436	-0.0296521	-0.000545202	-0.000184333	-4.22317e-05	0.000319964	-7.98222e-05	-0.000501896	-0.0344636	-0.106226	-0.0876776	-0.0890005	-0.0380785	-0.0278474	0.0334237	0.0209697	-0.0726087	-0.0638566	0.0507571	0.000497328	-0.0807355	-0.0371755	-0.0455184	-0.0214561	-0.0231848	-0.0351503	-0.0119392	-0.0741666	-0.0625476	-0.0141573	-0.00230374	-0.000176041	-1.76435e-05	0.000398376	0.00103065	0.0136493	-0.00951724	-0.0590079	-0.0950541	-0.102574	-0.0784134	-0.0872664	-0.0838154	-0.0217477	-0.016094	0.0816428	0.246193	0.148173	0.061248	0.00144765	0.00241226	-0.0568401	-0.0627073	-0.0610539	0.000193954	-0.0296583	-0.0261121	-0.0123821	-0.00643318	-0.00487037	-4.23123e-05	0.000484213	0.00209951	-6.97716e-05	-0.00929135	0.0881828	0.0355429	-0.023512	-0.0866922	-0.0936011	-0.019917	0.0965336	0.194837	0.127527	0.119919	0.204073	0.0883529	-0.0375454	-0.0355107	-0.101005	-0.115345	-0.0190655	-0.0247973	-0.0534754	-0.0572014	-0.0222963	-0.00179321	-0.00164056	-7.00845e-06	0.000416074	0.00288991	-0.0106324	-0.025346	0.00515365	-0.0797341	-0.0656131	-0.0832977	-0.0638406	-0.0130392	0.0698607	0.0686821	0.0379309	0.104915	0.0618657	-0.047033	-0.144399	-0.0410266	-0.127138	-0.0927132	-0.0580601	-0.109179	-0.121511	-0.0761543	0.00964349	0.000284022	-5.27739e-05	0	0.000377737	0.0027139	-0.00114976	-0.046725	-0.0582374	-0.150683	-0.114	-0.0982007	-0.141398	-0.12894	-0.0838571	-0.186556	-0.0535926	0.0332826	0.0299641	-0.126217	-0.180227	-0.0693925	-0.040621	-0.0909009	-0.119844	-0.127292	-0.143959	-0.0496869	0.0725005	0.0271095	0.00134619	0	5.93673e-05	0.00183563	-0.00156482	-0.0721982	-0.0669815	-0.131086	-0.112217	-0.150946	-0.148697	-0.136576	-0.16802	-0.167494	-0.0286664	-0.0551812	-0.126258	-0.0501759	-0.0387816	0.0121086	-0.0305441	-0.0805407	-0.0813337	-0.151386	-0.0964901	0.0329321	0.121286	0.04845	0.00670233	0	4.84147e-05	0.00110553	-0.00234692	-0.0673276	-0.0948111	-0.153037	-0.134844	-0.100902	-0.0635809	-0.0178127	-0.0329696	0.00722818	0.017818	-0.0510248	-0.0523496	0.0562175	0.0215116	0.0328439	-0.0223911	-0.0357546	0.00121304	-0.0430852	-0.0759615	0.0175888	0.0605896	0.0589561	0.00156748	1.02136e-06	2.06936e-05	0.000820744	0.000373955	-0.0586438	-0.0774656	-0.089323	-0.0740655	0.0118999	0.0419857	-0.00460569	0.00318721	0.0743018	0.175497	0.0316387	-0.02109	-0.0253432	-0.0807662	-0.052292	-0.00429956	0.0306276	0.0608909	0.0285957	0.0408075	0.101488	0.129374	0.0959054	0.0209303	5.83102e-06	0.000255461	0.000643952	0.0186572	0.00642336	0.00236978	0.0323824	0.0313005	0.0308168	-0.0119906	-0.0349254	0.0197824	-0.0669845	0.0356129	0.0473896	0.0354041	0.0631095	0.0465222	-0.0334228	0.0494514	0.0611549	0.145829	0.0887964	0.0950541	0.137734	0.146938	0.0530636	0.0140035	0	0.000146818	0.000363914	0.0436268	0.0919593	0.0576197	0.0675775	0.00972651	-0.0571258	-0.0447769	-0.031277	0.00105706	-0.0323634	-0.0375438	0.023857	0.0919336	0.0589741	0.0808894	0.0713252	0.102225	0.123486	0.0929557	0.0137954	0.108695	0.048624	0.0967328	0.0129951	0.0134487	2.29234e-05	-1.147e-07	0.000371398	0.0571997	0.0909678	0.0646758	0.0754251	0.0400885	0.0784055	0.0561717	0.0350064	0.0234971	-0.0654895	-0.00618314	-0.0144807	-0.0177233	0.0315216	0.0814417	0.0762924	0.0521862	0.0384689	0.066784	0.0567025	0.112194	0.169103	0.148975	0.0426666	0.0230586	0	-0.00405421	-0.00355184	0.0330147	0.100436	0.0858543	0.0781441	0.0488216	-0.015339	0.0161012	0.0877168	0.0806455	-0.0720776	-0.00981523	-0.113021	0.0117026	0.0711031	0.124363	0.0292805	-0.0593226	-0.0184802	0.0596082	0.130934	0.192917	0.160139	0.0876116	0.0128602	0.000106166	0	-0.0103898	-0.00666592	0.0313613	0.0698793	0.0772219	0.0550051	0.0797853	0.0485819	0.0212023	0.0121321	0.0389069	0.00190386	-0.0703377	-0.134122	-0.124308	-0.0732565	-0.112333	-0.086683	-0.18612	-0.0727139	0.00262854	0.0390713	0.0150261	0.00155899	2.26071e-05	0.00382395	-7.08902e-07	0	1.72665e-05	0.00154956	0.0158365	0.0354219	-0.00074756	-0.0136326	-0.0280708	-0.00286981	-0.0231803	-0.0158072	0.0485716	0.0593538	-0.0674456	-0.142789	-0.174136	-0.184766	-0.204649	-0.0982799	-0.116468	-0.0931983	-0.0693679	-0.0856207	-0.0583781	-0.0311714	-0.0211071	-0.000590343	0	0	6.75861e-07	0.00376768	0.00542243	0.00853623	0.00846445	-0.0297818	-0.0191871	-0.00203494	-0.00551815	-0.0372281	-0.00156907	-0.0374792	-0.0944315	-0.164655	-0.142807	-0.138405	-0.1541	-0.0564481	-0.0686255	-0.034502	-0.0273471	-0.0682485	-0.0719678	-0.0325041	-0.0201844	-0.00870852	0	0	0	0.00177356	0.0010756	-0.000734739	0.0068959	-0.00917343	-0.0187763	-0.0205019	-0.0791093	-0.13505	-0.0538903	-0.143553	-0.170226	-0.161342	-0.134211	-0.140453	-0.123235	-0.0673934	-0.0844882	-0.0795188	-0.0827079	-0.072967	-0.0840264	-0.0448927	-0.023186	-0.00463684	0	0	0	3.61595e-05	-0.00322898	-0.00311033	-0.003081	-0.0087843	-0.0170387	-0.0236918	-0.0838737	-0.0801666	-0.0954599	-0.151948	-0.135655	-0.0757909	-0.0759349	-0.115366	-0.075482	-0.0601171	-0.0762854	-0.0706753	-0.0639964	-0.0589597	-0.0425704	0.000219449	0.000931137	0.000143799	0	0	0	-1.89983e-05	-9.66563e-05	-0.000388437	-0.00299089	-0.00333243	-0.00753119	-0.00880056	-0.0430912	-0.0430221	-0.049199	-0.0783835	-0.0609236	-0.0349369	-0.0295983	-0.0245056	-0.02031	-0.0389868	-0.0552121	-0.0499671	-0.031515	-0.0218082	-0.0190752	-0.000582795	0.000102672	0.000147959	0	0	0	0	-1.53337e-07	-0.00082342	-0.00676058	-0.00445142	0.00126168	0.00634321	0.00748474	0.00172052	-0.0105915	-0.0169634	-0.012113	-0.00923396	0.00307455	0.0153738	0.00743629	0.000932013	-0.00348796	-0.0106614	-0.0087136	-0.00219004	0.000412015	-1.22467e-05	0	0	0	0	0	0	0	1.59243e-05	0.00014489	0.000111504	-7.04752e-05	0.000663516	0.00125937	0.00158522	0.00148262	0.00214458	-0.00534617	0.001163	0.00255913	0.00249841	0.00193675	0.000799942	0.00011235	-0.000559116	-0.000113876	0.00124689	0.00045527	0	0	0	0	
0	0	0	0	0	0	0	0	0	0	0	0	0	0	0	0	0	0	0	0	0	0	0	0	0	0	0	0	0	0	0	0	0	4.52644e-06	0.000213365	0.000354677	-0.000443274	-0.000565102	-0.000459376	-8.66883e-05	0.000198461	-0.000596878	-0.00113077	-0.000157111	0.000951545	0.000592379	0.000118165	0.000176493	0.000132468	7.00804e-05	2.84429e-05	3.30539e-05	0	0	0	0	0	0	0	2.65307e-05	9.12283e-06	0.000380035	4.93103e-06	0.000334995	0.000660644	-0.00113234	-0.000668711	0.00145254	0.000365268	-0.00268283	-0.0029596	-0.00152266	-0.000706579	-0.00147998	0.00273468	0.000847975	-0.00177763	-0.00187347	1.5431e-05	0.000193121	0.000114245	5.90369e-05	0	0	0	0	-7.5571e-06	8.1241e-05	0.000413986	4.91845e-05	0.000113505	0.00119053	-0.000568924	-0.00504653	-0.00976092	-0.0102984	-0.010281	-0.0111952	-0.0121794	-0.0165726	-0.0136739	-0.00796741	-0.00997466	-0.00818905	-0.011902	-0.00637671	-0.00127709	-0.00080867	-0.000305418	0.000143903	0.000103049	0	0	0	-2.67962e-05	4.13092e-05	0.00054575	0.00162739	0.00257393	0.00361807	-0.00445664	-0.019302	-0.0172666	-0.0192438	-0.0230252	-0.0296135	-0.0341895	-0.0170193	-0.0153504	-0.0228279	-0.00793428	-0.00122171	-0.00674006	0.00151355	0.0102667	0.00367235	-0.00122522	-0.000820355	-0.00019831	1.18983e-05	0	0	3.49683e-06	0.000154328	0.0012874	0.00559328	0.0100222	0.00899167	0.00177497	-0.00440129	-0.00494845	-0.0167847	-0.0313511	-0.04629	-0.0517997	-0.0438621	-0.040222	-0.0466883	-0.0297238	-0.0250395	-0.00524535	0.00830264	0.00881087	1.27498e-05	0.00145318	-0.00027697	0.000328044	-1.36263e-05	0	0	0.000559988	0.00190357	0.00704964	0.0158219	0.025727	0.0342651	0.0450672	0.0181249	0.013019	-0.0116405	-0.0797732	-0.148994	-0.196488	-0.233758	-0.247381	-0.217522	-0.143485	-0.0763553	-0.0243523	0.00851131	0.00621013	-0.00893378	0.00221815	-0.000529079	0.000257727	0.000350514	0	-0.000696647	0.00138413	0.00655517	0.0182885	0.0309379	0.0574275	0.0729268	0.044303	0.0563366	0.0444696	-0.00409433	-0.095809	-0.175808	-0.243276	-0.240476	-0.209742	-0.171519	-0.0947503	-0.0241848	0.0215736	0.0328744	0.0196973	0.00765311	0.000112264	-0.000656435	0.00147055	0.000380264	6.07191e-05	0.00059379	0.00286656	0.0131001	0.0288288	0.0428075	0.0634131	0.0770625	0.0396992	0.0362374	0.0102197	-0.0393712	-0.0627548	-0.0653345	-0.0207568	0.015947	0.0473483	0.0393117	0.00745667	0.0044644	0.0293048	0.0391575	0.0262297	0.00983157	-0.0113222	-0.014373	-0.00471855	-0.000297322	7.27665e-06	0.000856734	0.0041601	0.013719	0.0306917	0.035176	0.0360022	0.0333484	-0.00116459	-0.0312204	-0.0725498	-0.0665505	-0.00355813	0.122163	0.189229	0.198381	0.171749	0.105418	0.0373758	0.00148303	-0.00918746	0.00522407	0.0263816	0.0188417	-0.000604513	-0.00308465	-0.000605761	0.00075714	1.75361e-05	0.00099016	0.00527363	0.0148147	0.024318	0.0125734	0.00938847	-0.010059	-0.0656267	-0.0931797	-0.103304	-0.0616457	0.05051	0.171286	0.182589	0.167842	0.105101	0.0274504	-0.0231448	-0.059852	-0.048273	-0.0556967	-0.0314387	-0.00865622	0.0125353	-0.000809277	-0.00101939	-0.000317607	1.38225e-05	0.000831161	0.00516123	0.011422	0.0139057	-0.0133365	-0.0240798	-0.0325636	-0.0706412	-0.109894	-0.081981	-0.00524597	0.069109	0.115601	0.0930791	0.0448746	-0.0138843	-0.0633019	-0.0792017	-0.0864254	-0.0771737	-0.072289	-0.0608327	-0.0164147	0.0114236	-0.000929635	-0.0010083	-0.000121112	0	0.000549874	0.00448161	0.00916521	-0.00967311	-0.0363871	-0.0459098	-0.029238	-0.0249713	-0.043629	-0.023587	-0.012334	0.0165741	0.0376094	0.00557183	-0.076186	-0.1295	-0.137357	-0.0949036	-0.0937087	-0.0644697	-0.0235971	-0.0470237	-0.0226421	0.0137762	0.000604815	0.000623458	0.000148302	0	4.31335e-05	0.00323647	0.00806881	-0.0201502	-0.0448409	-0.0467502	-0.0161981	-0.00334812	-0.0418244	-0.0646529	-0.124199	-0.142949	-0.153728	-0.191579	-0.257525	-0.238964	-0.156611	-0.0577887	-0.0338611	-0.0193025	-0.0144056	-0.0173356	0.00690717	0.0212862	0.00154919	-0.000400617	2.06889e-05	0	0.000238558	0.00200477	0.00427811	-0.0248973	-0.0231156	-0.029557	0.0143201	0.00546707	-0.0522466	-0.137423	-0.215397	-0.248624	-0.296241	-0.321504	-0.290124	-0.205629	-0.0989172	0.00859259	0.0447361	0.0410547	0.0265543	0.0273225	0.0353657	0.0247161	0.00237816	-0.000191568	-4.86188e-06	1.87531e-06	0.00051957	0.00171715	-0.00296354	-0.0244998	-0.0166255	-0.00908117	0.0189606	-0.015478	-0.0841933	-0.188013	-0.243978	-0.275469	-0.314714	-0.302742	-0.223628	-0.154238	-0.0498648	0.0437077	0.0877241	0.0863962	0.071903	0.04529	0.037542	0.0128769	-0.000397529	-0.000686002	-5.75281e-05	1.07063e-05	0.00026711	0.00182625	-0.00531588	-0.00555091	-0.00971572	-0.0081324	-0.00300352	-0.0510774	-0.0967749	-0.165806	-0.210427	-0.236564	-0.236614	-0.214307	-0.155751	-0.127031	-0.0484635	0.0356643	0.0940625	0.0709182	0.0591781	0.02473	0.0255503	0.0153435	-0.00253509	-0.000452005	-0.000153901	0	0.000101234	0.00128225	0.0023049	0.00894876	0.0255883	0.0303323	-0.0202806	-0.0755689	-0.127165	-0.159698	-0.178299	-0.182364	-0.163064	-0.146139	-0.128399	-0.0966123	-0.0392063	0.0261783	0.0558626	0.0305931	0.0364096	0.0280788	0.01892	0.000186732	-0.00904007	-0.00430043	2.58244e-05	2.22884e-05	3.89063e-06	0.000789558	0.00611381	0.0083937	0.0342323	0.0504991	0.0165795	-0.0379949	-0.09868	-0.135151	-0.127515	-0.100987	-0.0783112	-0.0764716	-0.0473344	-0.0362507	-0.0273361	0.000984828	-0.013759	-0.0180405	0.0125239	0.0144269	-0.00338106	-0.0120815	-0.00841205	0.00020628	3.42735e-05	0	0.000267156	0.000431468	0.0049336	0.0103357	0.0276639	0.0316228	-0.0116029	-0.0197641	-0.0549104	-0.0654557	-0.0320135	-0.00705176	-0.0100921	-0.00802017	-0.0330214	-0.0385537	-0.0123301	-0.013266	-0.0283982	-0.0180624	-0.013682	-0.0101659	-0.0241501	-0.0138406	-0.00663992	-9.19428e-05	-3.65159e-06	0	0.000356606	-0.00169907	0.00828908	0.0120128	0.0159705	-0.00390293	-0.0291754	-0.0155013	-0.00868226	-0.00164283	0.0261552	0.0383474	0.0254529	-0.012021	-0.0248312	-0.0110514	-0.000639284	-0.0195357	-0.0235906	-0.0353037	-0.0297711	-0.0318555	-0.0277374	-0.00936644	-0.00136525	0.00156582	4.80699e-06	0	1.20103e-05	-0.0027716	0.00425284	0.00730518	0.0131844	-0.0164611	-0.030409	-0.028162	-0.00882234	-0.00544351	0.00973324	0.00768075	-0.0167939	-0.000338118	0.0256741	0.0289324	-0.0261137	-0.0217272	-0.0257186	-0.0422987	-0.0419101	-0.0341932	-0.0236884	-0.0072451	0.00175926	0.00258104	0	0	3.8356e-07	0.000200017	0.00861588	0.0154511	0.00774414	-0.00122465	-0.00119512	-0.00923193	-0.00970986	-0.00149201	0.00979669	-0.0139594	-0.0237651	-0.00174466	0.0350951	-0.00214737	-0.0262046	-0.0200975	-0.0351657	-0.0554444	-0.0528757	-0.0332586	-0.01918	-0.00696996	0.000684125	0.00154603	0	0	0	0.000347445	0.00189526	0.00545963	0.00854544	0.00236885	-0.000633646	-0.0127844	0.00424304	0.0100843	-0.0151891	-0.0441498	-0.0409032	-0.00353148	0.0179424	-0.0229576	-0.0273734	-0.041487	-0.0500697	-0.0589954	-0.0500852	-0.0333036	-0.0158328	-0.00439558	0.000292024	0.00017853	0	0	0	0.000126066	0.00159952	0.00441264	0.0080715	0.00387111	0.00139552	-0.00363168	-0.0153197	-0.0315778	-0.062544	-0.0570533	-0.0255233	0.015126	0.0195761	-0.0393711	-0.0303176	-0.0419012	-0.0455084	-0.0419631	-0.0360786	-0.0248722	-0.0119898	-0.00254283	-0.000356715	-3.35777e-05	0	0	0	-2.53748e-05	0.000102251	0.00129661	0.000773463	0.00109872	0.00616481	0.00865536	-0.0166089	-0.034558	-0.0298286	-0.00760032	0.0116532	0.0126327	0.00974338	0.00191399	-0.00460898	-0.0208434	-0.0242602	-0.0258331	-0.0219749	-0.0130011	-0.0036607	-0.000197353	-7.84994e-05	-3.73669e-05	0	0	0	0	-2.34093e-06	-0.000611256	-0.00166985	0.000292281	0.00675064	0.0153038	0.0237386	0.0178549	0.0207827	0.0314078	0.039858	0.0307111	0.0347106	0.0223509	0.0132742	0.00547253	0.00198719	-0.00491911	-0.00712816	-0.00619111	-0.000236138	-2.35387e-05	0	0	0	0	0	0	0	1.07981e-05	0.000146713	0.000129434	-0.000293913	0.00089579	0.00180677	0.00241577	0.00196075	0.00344734	0.00258829	0.00299667	0.00358951	0.000800018	-0.000862739	-0.000254563	-9.13482e-05	-0.00108125	-0.00274727	-0.00745621	-0.00150637	0	0	0	0	
0	0	0	0	0	0	0	0	0	0	0	0	0	0	0	0	0	0	0	0	0	0	0	0	0	0	0	0	0	0	0	0	0	5.4081e-05	0.000901805	0.00124291	-0.000206105	-0.000474539	-0.000388195	0.00230292	0.0113518	0.000878792	-0.00145281	-0.00101193	7.74504e-05	0.000101318	8.15697e-05	-0.000517401	-0.00101302	-0.0031931	-0.00221892	2.52765e-05	0	0	0	0	0	0	0	-1.41188e-06	-4.85487e-07	0.000643056	0.00174697	0.00771158	0.0045574	0.000964049	0.00886241	0.00886746	-0.0114123	-0.016164	-0.034727	-0.0332197	-0.0220122	-0.0176762	-0.0204222	0.00211958	0.0115931	0.00958725	0.00234917	0.000472889	9.79253e-05	2.11511e-05	0	0	0	0	-4.7135e-06	3.10491e-05	0.000580172	-0.00698417	-0.00677386	-0.00939069	-0.0136015	-0.0204163	-0.0112737	-0.0488261	-0.0013248	0.0340958	0.0120446	-0.0101576	0.00582058	-0.00696193	-0.0281127	-0.0342052	-0.00661615	0.00776533	0.00545148	0.00168773	0.000890255	0.000317614	0.000131707	0	0	0	-1.07249e-05	-5.70679e-06	0.000986443	-0.0031746	-0.00471609	-0.0462488	-0.0996776	-0.0862966	-0.0281404	-0.00791486	-0.00849251	-0.0486259	-0.00329963	0.0533725	0.0878026	0.0803871	0.0771807	0.014779	-0.0189558	0.000250408	-0.00301066	-0.00503464	0.0017063	0.000178499	0.000104575	2.75799e-05	0	0	2.20971e-05	-0.000282602	0.00071028	-0.00208256	-0.00533868	-0.0349546	-0.0493608	0.0204369	0.0702903	0.0751933	0.0300197	-0.010045	0.00960051	0.055312	0.131699	0.0668069	0.0503074	-0.00808671	-0.0273662	-0.0269508	-0.00538667	-0.00459015	-0.00166414	0.00121532	0.000358485	5.49934e-05	0	0	0.00291517	-0.000740475	-0.00403434	0.0237702	0.0126808	0.0364898	0.0817748	0.120293	0.0948332	0.0920868	0.00550634	-0.0439956	-0.130138	-0.129985	-0.137324	-0.168297	-0.179703	-0.162915	-0.105061	-0.0730758	-0.0309719	-0.0232622	-0.00470954	-7.75659e-06	0.00137526	0.000218856	0	0.0001068	0.00184045	0.00219021	-0.00229898	0.0224604	0.0213553	0.0353844	0.0935775	0.0966492	0.143898	0.141754	-0.104978	-0.222631	-0.336251	-0.363286	-0.304171	-0.303392	-0.253848	-0.179325	-0.07254	-0.0500638	-0.043789	-0.00681014	0.00169438	-0.00604625	0.0030712	8.39286e-05	-7.86695e-06	0.000781085	0.00832998	0.00572933	-0.00505271	0.00576832	0.00487319	0.024581	0.0570865	0.0742356	0.138359	0.0628846	-0.116067	-0.202337	-0.268842	-0.282807	-0.202714	-0.128586	-0.132757	-0.068735	-0.0161055	-0.0126592	-0.0139548	0.0100544	0.00300491	-0.0163617	-0.00109624	-0.000163914	-6.58815e-06	0.00110785	0.00552695	0.0139834	0.0088125	0.00130313	0.0188346	0.0325281	0.0424241	0.0318482	0.085866	0.0748365	0.00847151	0.0162042	-0.0129266	-0.0599821	-0.0376118	-0.0393768	-0.0593515	-0.0200908	-0.0222526	-0.0213318	0.00510359	0.00102652	-0.00455197	-0.0104966	-0.00263575	0.000579028	-1.5614e-05	0.00131131	0.00354312	0.0106427	0.0290957	-0.00234626	0.00457752	0.0153501	0.0488115	0.0247791	0.0194534	0.0489407	0.105939	0.152111	0.109695	0.0946043	0.0840556	0.016745	-0.0442336	-0.0269334	-0.0509342	-0.0593236	-0.0383075	-0.0216099	-0.0245035	-0.00904916	-0.00100746	-5.21358e-05	2.11426e-05	0.00112241	0.0049965	0.0112528	0.0201514	-0.022867	-0.00575331	-0.00736003	0.0400876	0.0633528	0.0317548	0.0796544	0.126217	0.0931653	0.0466581	0.00616551	0.0226267	-0.0205295	-0.0172354	-0.0558107	-0.0960058	-0.058747	-0.0462781	-0.0254044	-0.0136458	-0.00131673	-0.00132943	-2.84112e-05	0	0.000834198	0.00564838	0.0083276	-0.00893394	-0.026522	-0.0139544	0.0255338	0.0341156	0.00135554	0.0267487	0.0362389	0.0280077	0.00903114	-0.088802	-0.138246	-0.131175	-0.071211	-0.0132014	-0.0570445	-0.0401319	0.0264587	-0.0536597	-0.00288733	0.0197075	0.00521307	-0.00419941	0.000136373	0	0.00024373	0.0039526	0.00011273	-0.0275976	-0.0190557	-0.0049925	0.00715162	-0.0125238	-0.0317951	-0.0352943	-0.0789334	-0.12143	-0.185146	-0.230868	-0.225191	-0.17763	-0.080626	0.0190516	-0.00368333	0.0276592	-0.0182569	-0.0391314	-0.000751193	0.0363192	0.0103638	0.0013721	6.00484e-05	0	-0.000170681	0.00174556	-0.00719515	-0.0354917	-0.0301644	-0.0346616	-0.0207009	-0.0483044	-0.0665615	-0.130201	-0.187567	-0.240547	-0.266479	-0.258637	-0.157717	-0.114448	-0.012545	0.0334756	0.0668859	0.0130255	-0.0317723	0.00305196	0.0488072	0.021223	0.0107836	0.0042477	4.10367e-05	3.70894e-06	-0.000523989	-0.000633447	0.00101195	-0.0241832	-0.0376335	-0.018279	-0.0298423	-0.132647	-0.115681	-0.159907	-0.209666	-0.272575	-0.26267	-0.180581	-0.0645044	-0.0611481	-0.0274778	0.0389081	0.0781783	0.0199635	0.0161319	0.0362822	0.0387859	-0.017997	0.00643182	0.00282303	0.000173521	2.11747e-05	-0.000322472	-0.00217291	-0.00220479	-0.0074123	-0.0488837	-0.0403183	-0.050764	-0.0980038	-0.0939942	-0.12144	-0.156437	-0.187208	-0.141747	-0.0697539	0.00585689	-0.0462078	-0.0677318	-0.0287349	0.0413497	0.0409392	0.0187606	0.024256	0.0299238	0.00614269	0.014272	0.000657902	0.000105396	0	-9.73442e-05	-0.00121491	-0.00710282	-0.0121092	-0.0435153	-0.0840137	-0.0793503	-0.0694905	-0.100918	-0.0897023	-0.0581607	-0.0380074	-0.0408221	-0.0394222	-0.0934056	-0.0983597	-0.125521	-0.05137	0.00425414	0.0700434	0.0438028	-0.0256486	0.0503545	0.0322472	0.0105674	0.00255458	4.77015e-05	-1.61953e-06	-1.46765e-06	-0.000489914	-0.00898076	-0.0178538	-0.0556034	-0.11544	-0.0663904	-0.0119761	-0.030484	-0.0214388	-0.0309396	0.023136	0.0532403	-0.016106	-0.0134006	-0.0706469	-0.0924097	-0.0705791	-0.0501233	-0.0117163	0.0263847	-0.0368916	0.00659605	0.0263519	0.00581652	0.00151008	0.000197678	0	0.000113494	-0.00597599	-0.0118471	-0.0188515	-0.0348879	-0.0969121	-0.0662668	0.00531615	0.0316915	0.0542742	0.0387594	0.0649743	0.0358558	0.0124472	0.00077126	-0.0347066	-0.018681	-0.027885	-0.0732954	-0.0565786	-0.0168446	-0.00563757	-0.0213933	0.00132464	0.000742799	0.000588832	3.89627e-05	0	-4.15077e-05	-0.00840717	-0.0108625	0.00653544	-0.00381753	-0.084069	-0.087306	0.0173448	0.0399761	0.030307	0.0172975	0.0795259	0.0245324	-0.0365258	-0.0469998	-0.0322777	0.042712	0.0013385	-0.0461457	-0.0458994	0.0116552	0.0308558	0.00312928	-0.018216	-0.0159328	0.000583064	-1.08948e-05	0	-4.05338e-07	-0.00290453	-0.00916726	0.00771533	-0.00473152	-0.0216453	-0.060973	0.00222169	0.0641498	0.0581452	0.0836686	0.101248	0.0197838	-0.00491227	0.0299117	0.0453458	0.0347701	-0.0188461	-0.0207238	0.022217	0.074195	0.026756	-0.00495661	-0.00763211	0.00269784	0.000459039	0	0	2.82211e-07	3.3622e-05	0.000516993	-0.000467098	0.00172784	-0.00710365	-0.00817422	-0.0135492	0.0447919	0.0224081	0.0168204	0.00524913	-0.00868361	-0.0463832	-0.0101305	-0.00965462	-0.0335434	-0.0422778	-0.00208192	0.00802472	0.0263994	-0.0132353	-0.018258	-0.00134219	0.00211084	0.000371313	0	0	0	0.000126835	0.000345046	0.00333601	0.0022302	0.000965239	0.00248432	-0.0297385	-0.00834607	0.0222954	0.0351922	-0.0355962	-0.0660805	-0.0353892	-0.0233504	-0.00564847	-0.0342892	-0.0788025	-0.0588184	-0.0197978	-0.0314814	-0.0276224	-0.00932992	-0.00198241	0.00125905	0.000167296	0	0	0	-1.47729e-05	-0.000960559	-0.00141428	0.00673664	-0.000855504	-0.00746299	-0.0222791	-0.0315812	-0.045562	-0.0586793	-0.0839839	-0.0372131	0.0067672	-0.00344668	-0.0199461	-0.0346865	-0.0596954	-0.0357102	-0.0253532	-0.0473645	-0.0342109	-0.0171782	-0.00144819	0.000211272	2.8214e-05	0	0	0	-3.31502e-05	6.10974e-05	0.000599368	0.00855994	0.00776432	0.00373257	0.00167952	-0.0255379	-0.0362307	-0.0167688	-0.00656892	0.022284	0.0145209	0.00236615	0.000413982	-0.012156	-0.0473564	-0.0547539	-0.0371779	-0.0231569	-0.00909165	-0.00291409	0.000129213	-2.17026e-05	3.06234e-05	0	0	0	0	-1.07793e-06	-0.000398181	0.00278433	0.00722827	0.0120374	0.018458	0.0258343	0.031034	0.0378531	0.0484349	0.0482815	0.0212214	0.0137084	0.0188398	0.00922682	-0.000787067	-0.000742679	-0.006607	-0.00517259	-0.00183021	-0.000107555	-3.79769e-05	0	0	0	0	0	0	0	1.44302e-05	0.000186043	0.000172589	0.000276764	0.00170864	0.00336716	0.00735064	0.00552753	0.00555861	0.00638205	0.00691951	0.00242406	-0.00145979	0.00139891	0.0015233	2.74768e-05	-0.00101933	-0.00124881	-0.00213492	-0.000253033	0	0	0	0	
